4
64 784
0.508774 0.705557 -0.267006 0.218092 -0.205346 -0.26287 -0.496731 -0.402146 0.00435772 -0.53715 -0.600938 0.138299 0.786431 -0.0780837 -0.640427 -0.850272 0.376142 -0.792424 -0.17678 0.189807 0.505763 -0.263639 -0.954829 0.391722 0.744843 -0.951353 -0.520798 0.863216 -0.421979 -0.847409 -0.684316 -0.963352 -0.423436 0.66404 0.796134 -0.783123 0.172399 -0.216696 -0.710934 0.19599 0.710429 -0.205677 0.909384 0.140238 0.160093 0.180869 0.438039 -0.0213791 -0.424852 -0.666272 -0.927207 0.899776 -0.327682 0.260461 0.729353 -0.978621 0.00289926 -0.635259 -0.315966 0.655079 -0.207861 -0.254228 -0.315225 0.46508 -0.789338 1.07714 0.598599 0.0421087 -0.0691744 0.420138 0.427432 0.12766 0.367752 0.415129 0.240518 0.635319 -0.308642 1.02879 -0.291861 0.797535 0.000635649 0.705518 -0.0354867 -0.774217 0.299905 -0.234477 0.538329 -0.566889 0.488059 -0.901758 -0.468567 -0.0885496 -1.06717 -0.413506 -1.03546 -0.0233196 -0.679273 0.224844 0.0919647 -0.89356 -0.110271 0.182993 1.32313 -0.549655 1.24974 1.04073 1.10206 -0.367092 -0.138944 -0.658671 -0.552394 -0.806118 0.881161 -0.631094 -0.761472 -0.0607386 0.552956 -0.456562 0.280342 0.0594148 -0.888317 -0.124521 -1.24778 -0.766957 -0.366481 0.252494 -0.143388 -1.25322 -0.427856 0.255061 0.457204 0.257608 -0.150917 0.655072 0.74475 0.79465 -0.0768081 -0.833087 0.594351 0.988886 -0.527024 0.248885 0.621975 0.529147 -0.41747 -1.49666 -0.373438 0.254588 0.417837 0.466393 0.0815739 -0.811911 -1.13416 0.743436 0.423813 -0.0671423 0.72624 0.420725 0.45018 -0.151168 -0.196696 0.436526 -0.698152 -0.197182 -0.856239 0.236056 0.925407 -0.844563 0.444868 0.328661 -1.027 0.0242056 -1.19322 -0.0165151 -0.634118 -1.4437 -1.06033 -0.93115 -0.0615212 -0.307374 0.476947 -0.137981 0.75738 -0.0590182 0.546651 -0.61328 0.321672 -0.143587 0.613085 -0.929004 0.559746 -1.24321 -0.260144 0.234082 0.889394 0.653798 0.735771 0.360461 0.532931 -0.293603 -0.338679 -1.82519 -1.45351 -0.64679 -1.06747 0.206996 -0.704862 0.390417 0.0104045 0.0215878 -0.24562 -0.554708 0.511759 0.0171076 0.372932 0.478583 0.764929 -0.530969 -0.813819 -0.303488 0.19948 0.226727 -0.86009 0.0407422 0.0660115 -0.0312752 0.842983 0.194078 -1.17668 -1.55316 -0.920221 -1.17878 -0.502299 -1.40816 -0.940323 0.032961 -0.20384 -0.72673 -0.171291 -0.293751 -0.357992 -1.0422 -0.719189 -0.587433 -1.16316 -1.15 -0.627062 -1.18504 -1.00565 -0.936088 -0.859869 0.330217 0.121494 0.900025 -0.785721 -0.701713 -0.127096 -1.11355 -0.447445 -0.980178 -1.39355 -0.692613 -0.910434 -0.239587 0.337779 0.578641 -0.134999 0.0401592 -0.00833769 -0.576378 -0.142386 -0.404977 -1.32011 -1.20391 -1.10828 0.151153 -1.0742 -0.784453 -0.459271 0.957595 0.398175 0.271536 0.519443 0.211263 -0.35998 0.47214 -0.219757 -0.106201 -0.00610948 -0.052849 0.227276 -0.0190165 -0.00173479 1.11177 0.824697 -0.179822 0.899135 -0.476402 -0.505488 -0.0558452 -1.31456 -0.194426 -0.539353 -0.121216 -0.543373 0.671763 0.841102 -0.698355 -0.605884 -0.289159 -0.294451 -0.115127 -0.623834 -0.148852 -0.415014 0.931995 -0.948007 0.00953821 -0.00640327 -0.1691 0.255591 -0.156774 1.17 -0.13436 -0.28683 -0.00989341 -0.348919 -1.3609 0.0489451 -0.794773 0.493595 -0.359175 1.3068 1.1956 0.128337 -0.810846 0.837153 -0.617712 0.683595 0.0509356 -0.645893 -0.113624 -0.439369 0.609339 -0.00664965 0.252695 -1.52313 1.17037 0.345206 1.18818 -0.494399 0.0439586 0.0268973 0.80259 0.572935 0.871498 0.122031 0.258657 -0.360097 1.62267 0.0552085 0.806693 0.761049 0.830656 -0.365825 0.955697 0.66043 -0.332235 -0.755179 0.532271 -0.283098 0.633701 -0.0281702 -0.968866 0.394667 0.35326 -0.312323 0.216609 0.624999 -0.686299 0.767237 0.482529 0.589412 0.059733 0.801014 1.86423 1.33277 0.80089 -0.086484 -0.558471 -0.704013 -0.384014 -0.767877 0.194708 0.697485 1.05518 0.108087 -0.163992 -0.299368 0.621285 -0.169793 -0.881991 -0.914465 -0.543866 -0.0463268 0.512093 -1.31899 -1.13356 0.231673 0.386772 -0.304746 -0.162631 -0.0358305 0.742523 0.753295 0.254676 0.205956 0.439514 -0.268967 0.211886 -0.925069 -0.48967 0.905655 -0.291814 0.365258 0.819496 0.17438 -0.442506 -0.901485 -0.475434 -0.334531 0.450598 -0.626397 0.749591 1.04074 0.10688 1.1121 0.387393 -0.204619 0.833 1.16731 1.09799 0.153156 0.407515 0.66805 -0.685074 -0.603513 -0.602283 -0.152956 0.753164 0.534094 -0.264537 0.0619493 -1.09851 -0.800527 -0.835066 -0.786816 -1.30539 0.774841 0.935957 0.603794 1.04952 0.2643 0.438752 -0.365842 0.127699 0.395837 -1.0538 -0.236782 -0.276216 -0.017047 -0.868122 -0.117079 0.512998 -0.280788 0.0771349 -0.812256 -1.05044 -0.129068 -0.776896 -1.6332 -0.326233 -0.935658 0.229902 -1.18449 -0.236242 -0.0465547 1.43608 -0.106371 1.35568 0.473461 -0.257146 0.885745 0.26305 0.914721 0.389504 1.00121 1.13001 0.738532 -0.591078 0.47056 0.389052 0.63903 -0.0980441 -0.430028 -0.538072 0.247831 0.228927 -0.35328 -1.60155 0.0275979 -1.41513 -1.53096 -0.35802 0.174799 0.146698 0.18106 0.477984 -0.870509 -1.03911 -0.274165 -0.504654 -0.983008 -0.41702 -0.62692 0.0684979 -0.340491 -0.271925 0.117506 -0.664868 0.628968 0.949889 -0.980407 0.306806 -1.02332 -1.20554 -0.0454156 -1.77062 -0.449026 -0.978834 -1.5243 -1.04128 -0.142362 -0.0705295 -0.0543124 0.0829991 -0.0789129 -0.34269 -0.423375 -1.20762 -0.488592 -0.822816 0.182848 -0.320012 0.254779 0.209591 0.447677 0.594371 -0.299666 -0.114963 0.376751 -0.439606 -0.164977 -1.48251 -1.69464 0.101896 -0.559353 -0.783307 -0.678929 0.139439 -0.256699 -0.539834 -0.465226 0.221089 -1.60013 -0.168781 -0.394151 -0.877809 -0.637946 -0.15481 0.414111 0.620116 0.497549 -0.053185 -0.12807 0.373704 -0.00927618 -0.949522 -0.223843 0.321581 -0.0827926 -0.258939 -1.39339 -0.610561 -0.00210054 0.282848 -0.458632 -0.0438862 -0.220696 0.436079 0.469635 -0.0680525 0.416112 0.0924759 -0.972843 -0.445967 0.151014 -0.725016 -0.777651 -0.609936 -0.816921 -0.420956 -0.289585 -0.132227 0.0358557 -0.0802942 0.0384591 -0.626568 0.350333 -0.138944 -1.27305 -0.969378 0.160813 0.160199 -0.613921 -0.51424 -0.649194 1.00672 0.41855 0.698167 -0.0727369 0.901579 -0.512292 0.625846 -0.271981 -0.248882 -0.603478 0.432072 -0.0589512 0.737541 -0.371395 0.19971 0.448622 -0.649586 -0.337097 0.993349 -0.732286 0.349097 -0.220521 0.231058 -0.702178 -0.491421 -0.396348 -0.428751 0.805829 0.85759 -0.0584583 -0.282773 0.729035 -0.411422 0.713545 -0.348062 0.801291 0.581106 -0.230543 1.01646 0.388817 0.408765 0.113725 -0.402849 0.579286 0.0768151 -0.909414 0.972706 -0.497678 -0.910971 -0.266386 -0.591615 0.641629 0.102824 0.684827 1.2327 0.876861 1.2913 0.13918 0.597998 0.398685 -0.181772 0.552319 -0.407 0.774094 0.980412 0.574176 -0.238903 1.1369 -0.263978 0.653887 -0.820727 -0.271017 -0.12302 0.960815 0.404731 -0.460616 -0.921492 0.879399 -0.275707 0.420669 0.248377 0.37847 -0.22446 0.446282 0.720271 0.609936 1.28253 0.281542 0.0679156 0.0137639 0.876008 0.891222 -0.767999 0.29277 -0.653596 -0.269531 -0.215624 0.0552049 0.199038 0.971854 0.854122 0.020067 0.924249 -0.28492 -0.0875533 0.0328815 0.384716 0.757142 0.811697 0.503381 -0.303675 -0.417439 0.240033 -0.772565 0.784506 -0.809063 -0.183525 -0.679108 -0.993499 0.936818 0.216362 -0.0623288 -0.604761 0.314148 0.900902 0.0334401 -0.247005 0.793582 -0.731925 -0.626942 0.574023 -0.878109 -0.0682999 0.439618 0.319993 -0.892592 0.724326 0.86815 -0.630415 0.20395 0.179174 -0.634038 -0.0448797 0.240002 0.616884 0.545777 0.397264 0.578051 -0.073397 -0.0704672 -0.390611 0.998532 0.0594806 0.648915 0.195227 0.717032 -0.644154 
0.767144 -0.271523 0.723197 0.711295 -0.991968 0.845156 -0.118146 0.725579 -0.29429 -0.458295 -0.25104 -0.448064 0.750759 0.667428 -0.577324 -0.486441 -0.4659 -0.524762 0.0573758 0.881348 0.309144 0.492595 -0.953124 -0.468245 0.236183 0.854488 0.174963 -0.423017 -0.38847 0.793233 0.373965 0.32268 -0.770419 0.933527 0.417422 -0.360511 0.586721 0.319862 -0.541972 0.527966 -0.0501902 0.698527 0.00805838 -0.198865 -0.0992187 0.0577101 -0.61182 0.303776 0.864216 0.999039 -0.785628 0.681973 -0.232124 -0.156436 0.693885 0.722926 0.398175 0.695948 -0.904625 -0.724038 -0.550766 -0.598989 -0.962909 0.983409 0.303734 0.551668 -1.02797 -0.441012 0.69029 -0.737525 0.137932 0.486172 -0.313806 -0.206353 0.977552 -0.575609 -0.399343 0.00163497 0.376194 -0.570836 -0.40104 -0.840528 0.698858 0.32146 -0.778314 0.0633367 -0.835912 0.728186 0.319604 0.621745 0.680184 0.146684 0.410793 -0.780449 -0.0809502 -0.405605 -1.06502 0.936705 -0.193802 0.262778 0.336201 1.27739 1.2135 0.520324 0.487342 -0.412759 -0.498144 -0.371861 0.0813721 0.446216 0.998233 0.806825 -0.915036 0.0721547 -0.401931 -0.330386 -0.351414 -0.858996 -0.531007 0.794336 -0.18044 -0.317467 -0.118721 -0.551726 0.464114 -0.668337 0.0506764 0.680737 1.01637 1.15722 0.066925 0.0371533 -0.458485 -0.0826555 0.581885 -0.866488 -0.534145 -0.929685 0.324678 -0.185318 0.677297 0.871358 0.58131 0.0222693 -0.305007 -0.208273 -0.408351 0.0504391 1.08697 0.208255 -0.270353 0.212493 0.248108 -0.0286734 -1.02072 0.722896 1.17607 0.577649 0.642443 0.794829 -0.258271 -0.902615 0.990317 0.652618 -0.102374 -0.755061 0.905812 0.125651 0.312174 0.454999 -0.0510863 0.180407 -0.0149683 -0.94076 0.249996 0.196399 0.906905 -0.506098 0.174067 -0.300659 -0.147859 -0.229915 0.603893 0.118475 0.082264 0.54088 0.265725 -0.809294 -0.255292 -0.0483709 0.154528 -0.119409 0.727384 -0.524583 -0.621049 -0.329936 -0.286172 0.155793 -0.913327 -0.986855 -0.356383 -0.81698 -0.806904 0.0705326 0.47844 0.675472 -0.939149 -1.14611 0.618619 -0.161801 1.0389 0.711487 1.09147 0.42897 0.606792 0.322455 0.0294664 0.21772 -0.0183929 -0.028575 0.88876 -0.0271844 -0.913844 0.991943 -0.66216 -0.70857 -1.33613 -0.348577 -0.31272 -0.370176 -0.702178 0.327777 -0.466808 0.298676 -0.0187775 -0.518664 0.208512 -0.137709 -0.313302 0.199653 1.47347 0.864631 0.798552 0.0440963 -0.317347 1.66392 0.471519 0.946557 0.331803 -0.3836 -0.350419 0.65186 -0.0851161 -0.520157 0.180085 -0.659411 -0.768558 0.0906556 0.330781 0.0503588 0.427079 -0.915041 0.385293 0.301219 -0.348571 -0.362335 0.89132 0.354197 0.411511 0.358592 -0.0712303 0.536544 0.064975 -0.120391 0.225249 0.203462 0.485172 -0.55991 0.430544 -0.00614146 -0.0951872 0.906858 -0.502638 0.0779663 -1.06428 -0.397045 -0.967942 -0.136569 -0.615132 0.422392 0.324097 -0.589812 0.241973 -0.195431 -0.580633 1.06863 -0.050996 0.29188 0.235929 0.39623 0.292831 0.768824 -0.19679 0.0909433 0.31854 -0.925007 0.753494 -0.289163 -0.452132 0.810655 -0.74052 -1.11493 0.909622 -0.271984 -0.760599 0.88308 0.0306123 0.649354 -0.571818 -0.0502277 -0.756641 0.03574 0.163597 -0.186129 0.424936 -0.318571 0.789298 0.2291 -1.02495 0.0731614 -0.954849 0.397319 -0.831674 -0.619553 0.382169 -0.350505 -0.798517 -0.521006 -0.0101013 0.115265 -0.82482 -0.801399 -0.0856201 0.462728 0.646541 -0.346449 -0.532723 0.012033 -0.591538 0.0410689 1.0111 0.577973 -0.23453 0.680658 -0.73032 -1.22604 -0.870883 -1.2703 -0.376328 -0.516079 -0.337955 0.0160169 -0.891099 0.290323 0.649831 0.897668 -1.19793 -1.04397 -0.674155 -1.27691 -0.568436 0.186525 -0.521007 -0.478354 0.459742 -0.586483 0.818482 -0.5385 0.603606 -0.793804 0.189049 -1.19316 0.450638 -1.54342 -0.610057 -0.644168 -0.470288 -1.50879 -0.693927 -1.09645 0.296068 -0.658803 -0.927218 -0.36837 -1.04769 -0.921728 -0.243252 0.231801 -0.785215 -0.132129 -0.192334 0.356032 -1.02554 0.193369 -1.41415 0.225395 0.0111132 0.0267848 -1.14099 -0.743839 -0.531615 -1.95616 -0.629638 -0.682577 -0.125753 0.0338306 -0.50104 -1.12584 0.789658 -0.118127 0.363767 -0.504952 -1.41892 -1.15986 -0.223696 0.652078 -0.590149 -0.818443 -0.337168 -0.591805 -0.773021 -1.63492 -1.06274 -0.798194 -1.70651 -0.566386 -0.579602 0.74418 -0.826734 0.445661 -0.0456374 -0.096761 -0.369692 0.757414 -0.20919 -0.398237 0.525014 -0.504294 -0.519048 -0.448556 0.0832968 -1.21632 -0.284683 -1.13619 -0.866503 0.61195 -0.475543 0.0779612 -0.89795 -0.944907 -0.784645 -0.658595 -1.34235 -0.183276 -1.0011 0.926853 -0.855594 -0.525853 -0.510673 -0.186078 -0.801966 -0.550796 -0.289092 -0.0869615 -0.485097 0.829399 0.524255 0.38098 0.131018 -1.12645 -0.189129 -0.702177 0.153245 -1.10253 0.563554 0.433643 0.0254799 -0.484829 -0.135813 -0.836575 0.240544 0.481604 0.965181 0.0624912 -0.327386 -0.826734 -0.359976 -0.12802 -0.373026 -0.377008 -0.556756 0.381374 0.0349234 -0.986705 0.216716 0.543778 0.475104 -0.270909 0.0106023 -0.34288 0.651554 0.488508 0.591548 -0.00702539 1.3348 0.468654 0.630334 -0.240149 0.384371 1.66704 1.3463 0.566888 -0.978724 -0.868758 -0.60219 1.05754 0.037703 -0.48148 -1.4508 -0.480166 -0.370084 0.384869 -0.507614 0.307691 -0.394206 -1.19731 0.136279 0.192156 -0.633152 -0.868701 -0.45752 0.592583 0.498836 0.133896 0.119928 1.52501 1.27025 2.29019 1.88111 0.475223 -0.149306 0.0741079 0.279849 -0.134208 -0.30701 0.745988 0.232633 -0.85461 0.27266 -0.0516678 0.859981 0.60268 0.0918626 -0.0708688 -0.899144 0.0357234 -1.07008 -1.2053 0.231917 0.761295 0.687155 0.104625 1.12378 0.789899 2.67484 1.30929 1.3319 0.354003 -1.05919 -1.20952 -0.875383 0.304426 -0.133788 -1.1021 -0.986668 0.0722801 0.56888 0.0120548 0.245034 0.106979 -0.296028 0.875387 -0.170885 -0.905705 0.217757 0.288333 0.643671 -0.339338 -0.213265 -0.0598472 0.494818 0.709782 0.704898 2.7645 1.92745 1.38363 -0.35976 -0.907656 -0.893478 -0.758421 0.547153 -0.391892 0.412576 -1.23087 0.805869 -0.56212 0.990973 -0.0301864 0.141321 -0.523514 0.223085 0.371714 0.835015 1.00326 -0.261039 -1.00527 -0.13288 -0.707526 -0.896704 1.29716 1.06923 1.04488 1.8605 1.19264 -0.286614 -0.079954 -1.04197 -1.01463 -1.26975 -1.27335 -1.00991 -1.19782 0.472727 -0.0582598 0.70354 0.175277 0.635256 -0.437817 -0.159897 0.0542937 0.481608 -1.43969 -0.386002 -0.252682 -0.727925 0.573681 0.962461 1.18755 0.865735 0.421068 1.97433 1.07359 1.1105 0.486204 -1.01324 -1.1769 -1.36114 -1.77962 -0.246234 -1.03866 0.175484 0.882443 0.645351 -0.163318 -0.366189 0.712757 -0.586525 0.21937 -0.0296506 -1.31402 -0.216421 0.0536441 0.0273292 0.0222031 0.891514 0.867045 1.26761 1.30559 0.88328 0.844907 -0.645525 -0.762976 0.108845 -0.36096 -0.61892 0.433641 -1.21163 0.420467 -0.646924 0.976135 0.334743 0.497971 -0.20942 -0.49839 0.254088 0.799063 0.329436 0.143262 -0.845421 -1.17358 -0.630929 0.301753 -0.315198 1.18985 1.78183 1.03003 0.0381432 -0.850162 0.36141 0.596205 -0.351329 -0.971908 -0.87035 -0.448049 0.687661 0.958678 -0.11591 0.374676 -0.94607 0.0502082 0.613735 -0.421954 0.322919 0.441789 0.265269 -0.516379 0.888989 0.443702 -0.950349 0.384437 0.0268278 0.98125 0.434001 0.0815904 0.600603 -0.276931 -0.593968 0.929044 0.439956 0.558605 0.52839 0.132674 0.369017 0.991723 0.663212 -0.456404 0.970885 0.273354 -0.750908 -0.258194 0.527046 -0.312097 -0.0843306 0.274607 0.916267 -0.490219 0.19065 -0.565233 0.781362 -0.313672 0.615068 0.524733 0.881397 0.0197473 -0.465682 0.47673 -0.64977 0.146152 0.922787 -0.211341 0.52971 0.613392 -0.515732 0.379864 
-0.453902 0.354656 0.408429 -0.395489 0.556107 -0.755438 0.0547943 -0.58207 -0.545819 -0.828432 0.933354 0.840971 0.918077 0.329672 -0.851991 0.573179 0.408436 0.0923641 -0.151345 0.205874 -0.687389 -0.677767 0.775981 0.608796 -0.461418 -0.63921 -0.632191 0.00369274 -0.10593 0.523604 -0.349084 0.498163 0.637099 -0.500547 0.235364 -0.907091 0.227943 0.100317 -0.0207345 1.01629 -0.626467 -0.0898249 -0.182579 -0.587744 0.670237 0.689823 0.383538 -0.390456 0.195376 0.811549 -0.215856 0.795571 -0.394931 0.514394 -0.49709 0.665287 0.818049 0.710688 -0.765843 1.00663 -0.532756 0.605996 -0.9095 0.685417 -1.08185 0.317263 0.729626 0.0743519 0.25857 0.296242 0.105888 -0.665489 -0.0645452 -0.769024 -0.781067 0.186324 -0.381074 -0.727826 0.602038 0.12418 0.482912 0.795748 0.00747706 0.204003 -0.809992 0.155251 0.792144 0.455342 1.07834 -0.479016 -0.756287 -0.219284 0.448139 -0.726883 -0.243816 1.6093 1.30698 -0.567632 0.154978 -0.770222 0.589069 -0.672412 -0.783174 0.402843 1.01096 -0.182936 0.0484239 -0.176114 -0.235399 -0.461661 0.742873 0.482529 0.365337 0.89748 0.610568 0.115455 0.200947 -0.664686 0.592355 -0.068949 -0.426085 0.283159 -0.133815 1.61784 1.3868 -0.622971 -0.0482567 0.186629 1.04217 -0.831768 0.130654 -0.931995 -0.824182 -0.309574 -0.320752 -0.159053 -0.225422 -1.01636 -0.883196 0.271882 -0.6798 -0.840429 0.0197394 0.0249568 -0.255541 -0.471722 0.456481 -0.888868 0.319219 0.665231 0.576194 1.19203 -0.322005 0.583704 -0.291101 0.390618 -0.0325379 0.0877976 0.699855 -0.932193 -0.0836844 -0.390242 -0.903106 -0.788609 -0.280725 -0.494023 -0.3205 -0.0165094 0.199377 -0.557391 0.00280006 -0.297901 -0.000940129 -0.495242 0.394636 -0.633097 -0.383052 -0.615285 1.42967 1.07449 1.24314 1.30752 0.615639 0.0262862 0.14249 0.40592 0.0613749 -0.00923593 -0.0367665 -0.443079 -1.0629 0.122918 0.81525 -0.664579 -0.123225 0.694571 0.961241 -0.753895 0.375414 0.937313 0.415793 -0.498101 -0.349099 -0.366718 -0.804474 0.637819 0.0983524 1.51551 0.492122 0.727081 -0.347646 0.660162 0.131026 -0.65908 0.151009 1.01567 -0.680925 0.0222259 0.823333 -0.352977 -0.440402 0.862923 0.599983 0.927976 0.808344 -0.406802 0.766085 0.819862 0.667402 -0.355504 0.11424 0.239633 0.408069 -0.103738 1.00641 1.06808 -0.191236 0.593226 0.55428 0.820275 -0.533413 1.06035 1.13148 -0.179974 0.141847 -0.303502 -0.290403 -0.293369 -0.816922 0.270446 0.957382 -0.399024 -0.909482 -0.753908 0.548919 -0.845024 0.749775 0.227952 -0.905543 -0.212864 0.822877 0.969668 1.5182 1.46229 0.106843 -0.424669 0.843425 0.733326 0.177909 -0.318008 0.764811 0.224718 -0.303861 0.15647 -0.420698 0.434527 -0.0688161 -0.869725 0.929306 0.587529 -0.631947 0.931558 0.0662251 0.272613 0.227011 -0.356825 -0.559678 0.626381 -0.333014 0.658374 1.67526 0.531809 0.0842496 1.06975 0.000946773 1.08396 -0.115539 0.428223 0.501293 -0.669225 0.393113 0.262869 -0.91909 -0.543045 -0.448323 0.537176 -0.368992 -0.676504 -0.677358 0.549224 0.530703 1.30365 0.357432 -0.2037 0.566332 -0.688719 0.255313 1.72705 0.983291 0.353224 -0.0886639 -0.0315962 -0.283658 0.814923 -0.852754 0.710498 0.424122 0.485002 -0.0636245 -0.0623982 -1.17326 0.551838 -1.12844 0.147866 0.458872 0.927671 0.203284 -0.366646 -0.533257 0.00555729 0.0896859 -0.577743 -0.219015 0.734095 -0.443988 1.61004 0.432071 -0.565692 0.946263 -0.102045 -0.508228 -0.417602 -0.617296 -0.0881019 -0.47454 0.389596 0.0760906 -0.311225 0.911437 -0.352262 -0.0461332 0.291062 -0.428404 0.20686 0.495102 1.00767 1.03379 1.4145 0.555054 0.235558 0.758615 0.869604 0.678371 0.803198 0.290133 -1.07036 -1.09895 0.0593909 -0.333217 -1.40969 -1.45887 -0.137299 0.0380395 -0.238847 -0.286657 -0.311721 -0.774024 0.722437 -0.286283 -0.213704 1.04979 -0.941954 -0.501228 0.674219 1.38227 -0.392113 0.650433 0.557121 0.647873 2.05767 1.55166 1.15794 -0.092263 -0.557447 -0.403366 -1.31101 -1.11878 -0.735275 -0.343357 -0.206528 -0.310569 -0.0771713 -0.929626 0.3993 -0.232106 -0.0828695 0.735324 -0.172152 -0.139313 -0.339294 -0.492103 0.600341 0.824305 0.826888 1.61394 0.681832 2.79519 0.349474 -0.0955134 -1.62605 -1.67267 -1.99457 -1.07479 -1.35593 -0.352301 0.494795 -0.220156 -0.0526372 -0.834304 0.541207 -0.0084158 0.0930399 -0.839571 0.0873655 -1.09979 0.684695 -0.469664 0.889591 0.258245 1.20328 1.52414 1.97786 0.896155 2.7062 0.763925 -0.272282 -2.42926 -1.38414 -1.74608 -1.70119 -0.833022 0.716082 0.311527 0.333721 -0.158197 0.0854887 0.665456 -0.305914 -0.348175 -1.00115 -0.236438 -0.184456 -0.451245 0.240522 -0.816535 0.450779 0.390673 0.123127 0.516147 1.4738 1.00496 0.617741 0.433674 -0.951256 -2.02253 -0.646688 -0.452605 0.536755 0.424509 1.00055 0.335612 0.752148 0.343714 -0.198919 0.249799 0.11468 -0.326596 -0.404219 -0.231268 -0.3487 0.617648 -0.787499 -0.643243 0.0723311 -0.482529 -0.639886 0.118976 0.348359 0.708039 0.696591 -1.67595 -1.21684 -0.0635164 -0.644552 -0.757892 -0.0494105 0.476454 0.572913 0.499539 -0.834386 0.555079 0.192947 -0.710958 -0.805871 -0.309817 -0.693968 -0.505061 0.152871 0.234826 0.405779 0.262554 0.284951 -0.323527 0.957605 1.12693 1.9343 -0.0742508 0.439512 -0.39419 -0.461256 -1.07055 -1.25523 -0.104905 0.420838 0.171138 0.0875542 -0.0522773 0.388941 0.787488 0.644152 -1.22587 0.152183 -0.326799 -0.721775 -0.0197806 -0.323492 -0.508161 -0.619378 -0.784726 0.17893 -0.192969 0.493641 1.07971 0.0680535 0.584227 0.49061 -0.517617 -0.405475 -0.439077 -0.883085 -0.565958 0.227113 -1.31587 0.545712 0.373972 1.06385 -0.307041 0.335158 -0.87059 0.332067 -0.878462 0.812242 -0.549864 -0.131085 0.0434118 -0.501006 -0.159863 0.586657 -0.0499586 1.07228 0.519101 -0.425258 -0.146639 0.135063 0.777021 -1.23695 0.633867 0.0510852 -0.21127 -1.11225 0.377797 0.167043 0.563461 0.565963 -0.219334 -0.336236 -0.101233 0.129183 0.0144493 0.023535 -0.505406 -1.0468 -0.319053 0.0449636 0.633802 0.129307 0.858029 -0.400575 0.480028 0.438438 0.286889 0.430478 -0.466354 -1.17596 -0.633188 -0.476243 0.313253 0.214472 0.140865 0.547555 0.579609 1.11775 -0.078065 0.59575 -0.527751 -0.303587 -1.40112 -0.757515 0.337061 0.414445 -0.355041 0.498754 -0.471543 0.564501 -0.295862 0.389104 -0.731205 0.193994 -0.223362 0.241834 0.432916 -0.448841 -0.779256 0.627442 0.144456 0.835285 0.597986 -0.561362 0.0174516 -0.246703 1.59829 1.19964 0.0192428 0.595854 -0.0389354 -0.751762 -0.838182 -0.09725 -0.356728 0.525612 0.0580873 0.871822 -0.430021 0.963029 -0.861117 0.0940596 0.526511 -0.113096 -0.968459 -0.571857 0.783959 0.288449 -0.346854 0.356338 0.340367 0.456963 1.27962 0.693315 0.7227 1.28634 0.611144 0.875622 -0.217885 -0.609037 -0.913134 -0.310821 -0.64747 0.384947 0.608555 0.514328 -0.58529 -0.533318 0.199526 -0.542936 0.535071 0.310427 -0.891695 -0.0651834 -0.491184 0.450391 0.498866 0.405055 0.577918 0.789829 -0.459654 0.867788 0.277052 0.281545 -0.297237 0.804587 -0.744468 -0.999405 0.768941 -1.18133 -0.602049 -0.613183 0.616076 -0.686636 0.205373 0.708346 0.194358 -0.0956588 0.89602 -0.858329 -0.117625 -0.802343 -0.677749 0.592039 0.787203 -0.199347 0.870882 0.191425 -0.681759 -0.0968182 -0.128529 0.623635 -0.0493755 -0.45723 -0.644387 0.615578 -0.474487 0.123737 0.14653 -0.191858 -0.761011 0.373943 -0.114292 0.0770592 -0.10361 0.558791 -0.534316 -0.366675 0.7464 0.323639 0.664852 -0.251682 -0.753951 0.391217 -0.62777 0.0481872 -0.423873 0.135897 0.636848 0.74761 0.07004 0.601978 0.105136 -0.489389 0.928332 0.668691 -0.216773 -0.562365 0.459822 -0.501267 
0.881161 -0.209754 -0.767083 -0.622164 -0.424115 -0.0499459 0.394449 -0.0415342 0.482316 0.212736 -0.451979 0.0561946 -0.307738 0.00540979 0.323067 -0.158171 0.0948006 -0.967214 -0.77475 -0.147899 -0.987016 0.0297624 -0.128647 -0.474044 0.506088 0.318705 -0.132847 -0.472457 0.835078 -0.572003 0.958867 0.880241 -0.759476 -0.410288 -0.652867 0.905535 0.304843 0.111026 -0.994245 -0.670231 0.444217 -0.679604 0.538328 -0.113703 0.332139 -0.374572 0.739448 -0.582145 0.529668 -0.845982 -0.506719 -0.0783019 -0.754108 0.565832 -0.647995 -0.959709 0.249123 -0.236325 0.921413 -0.104427 -0.889755 0.324416 -1.16716 -0.645074 -0.836675 -0.451153 0.760977 0.371233 -0.908404 0.920645 0.484243 0.0595492 1.03988 0.221135 0.789137 1.40038 0.312271 -0.699145 -0.509485 0.0502928 -0.455374 -0.26194 0.858156 -0.137907 -0.278237 -0.21261 0.693006 0.624996 0.162719 -0.225955 0.0577858 -0.321833 -0.886583 0.347245 0.0800923 -0.551924 -0.494365 0.917469 -0.26587 -0.418517 0.150656 1.46902 1.00313 0.362433 0.878456 0.251791 0.0143444 0.410376 1.03199 -0.414879 -0.627121 0.79933 0.472457 -0.101253 -0.0814537 -1.20396 -0.869227 -0.894317 -0.813127 -0.296802 -0.588831 1.26503 -0.39205 1.20598 -0.702083 -0.859842 -0.915277 0.644948 0.74345 -0.108251 0.745874 1.17506 0.976627 -0.501347 0.801813 0.838829 -0.557996 -0.261255 0.373253 0.0649713 0.83874 -0.825269 0.423565 0.642772 -0.0768247 0.269199 0.0426076 -0.519917 -0.0691079 0.033515 0.444513 1.10442 0.408274 -0.257023 -1.66229 -0.0643204 -1.42106 -0.185604 0.517619 0.174653 0.396554 -0.47253 -0.12172 0.219235 0.578935 1.21113 -0.031901 -0.191475 0.432966 -0.38888 0.740637 0.108635 0.286863 0.757609 0.34212 -0.910668 0.101144 -0.969614 -0.590614 1.2532 -0.218853 -0.845524 0.0788101 -1.08496 -0.968191 -0.359165 -0.546734 0.224353 0.937009 -0.247465 -0.229031 0.778191 0.497918 0.0668191 0.566513 -0.808405 0.647206 -0.622398 -0.223216 -0.221287 0.000811211 -0.258316 -0.745103 0.35668 0.611098 0.604118 0.176247 -0.329121 -0.139821 -0.665243 -0.831753 -0.37505 -0.229893 -0.575044 -0.964149 -0.0145452 -0.0292991 1.35223 0.87365 0.725517 0.348755 0.266811 -0.837755 -0.535386 -0.807367 -0.0927349 0.0732804 0.798151 0.635451 0.471562 0.332992 -0.334048 1.08392 0.373407 0.0843939 0.134305 -0.0862335 -0.172589 -0.337287 -0.830115 -0.643181 -0.460923 -1.72016 -0.316064 0.5626 1.24559 0.0432525 0.342072 0.975169 -0.663174 -0.0149256 -0.541271 -0.637501 -0.928865 -0.757734 0.0366582 0.728429 -0.479907 0.127133 0.283694 -0.128943 1.09815 0.405441 -0.540005 -0.442691 -0.266733 0.0927145 -1.09567 -1.00581 -1.09474 -0.927264 -1.47688 0.403833 0.651008 0.771689 0.288335 0.221803 0.680972 -0.870516 0.946954 -0.295755 0.595062 0.439751 -0.224049 -0.320049 1.20931 0.099172 0.5313 0.211304 0.646854 -0.0901804 0.29465 -0.102185 0.192848 0.000751623 -0.214754 -0.872505 -0.978514 -2.27432 -1.59444 0.798626 1.85264 1.47031 1.11252 0.0224703 0.185663 -0.0525158 0.303323 0.790155 0.619578 0.427322 -0.28727 0.755721 0.585861 -0.195121 -0.302689 0.588239 -0.682937 -0.990411 0.320914 -0.498763 -0.269536 -0.239331 -0.504435 -0.49363 -1.64444 -3.27228 -0.662075 0.585924 0.614554 0.372404 0.174437 0.666707 0.515332 0.132199 -0.0989105 0.772454 -0.0705369 0.175251 0.0901712 0.656867 1.01961 0.897812 0.215924 0.66957 0.200707 -1.70717 -0.404659 -1.1776 -0.643439 -0.986293 -1.46708 -1.49277 -0.926233 -1.75417 -1.69003 0.651527 1.06744 1.73745 0.152526 0.514995 -0.240499 0.0104907 -0.312845 0.411542 -0.685436 0.211272 0.880396 0.473175 0.716586 1.25785 -0.107502 -0.218048 -0.311694 -0.654848 -1.94025 -0.839492 -0.870397 -0.143609 -0.335998 0.241453 -1.75202 -2.001 -0.187385 0.821677 1.08188 0.953284 -0.392649 -0.978438 -1.15751 0.171235 0.368694 -0.735509 0.195204 0.155277 0.375027 -0.159 1.10579 1.10874 0.909034 0.535143 -1.63035 -0.629633 -1.14181 -0.64401 -1.4115 -0.137319 -0.600472 -0.0516766 0.0280146 -1.5568 -0.13697 1.18395 0.544539 -0.197241 0.698439 -0.815535 0.689031 0.707322 0.652319 -0.279068 -1.03459 0.454219 0.487221 0.494593 0.530942 0.834897 -0.686592 0.678549 -1.80594 -0.224707 0.368514 -0.563433 -0.826855 -1.09341 -2.02225 0.144383 -0.74402 0.125181 -0.650837 0.144234 -0.561357 0.0667727 0.226495 1.06994 0.0102718 -0.240768 -0.0331627 0.571395 0.920758 -0.523937 1.12789 1.58852 0.465288 1.35028 -0.072586 -0.257477 -1.74226 -1.92561 -0.244472 0.0485551 0.0031742 -0.402315 -0.275379 0.615122 -0.496253 -0.113374 -0.381964 -0.0229039 0.494749 1.01559 0.509497 0.0974385 -0.132584 1.01288 -0.878108 0.80731 -0.240279 0.832662 0.615361 0.28731 0.272208 0.360007 1.02229 -0.735994 -1.11878 -0.932084 0.0339168 0.109718 -0.875774 -0.940761 -0.41859 -0.0104881 0.829421 0.354768 -1.02799 -0.250233 -0.237438 0.754992 1.02079 0.684557 -0.469138 -0.239785 0.31748 -0.68138 -0.640364 0.39224 0.48503 0.375649 1.33276 -0.304543 -0.094603 -1.77239 -0.826385 0.0230592 0.919309 -0.323064 -0.392515 0.314363 0.200442 -0.616244 -0.440611 0.299598 -0.0226329 -0.506752 1.09585 -0.216511 0.0698295 -0.551171 0.379855 -0.335212 0.962157 -0.801935 -0.541793 0.414722 0.104617 0.248963 1.83599 -0.198574 -0.628839 -1.33257 -1.58104 -1.37082 0.37542 -0.262674 -0.497411 0.348717 -0.0552915 0.329679 -0.708257 0.644522 0.195323 -0.490899 -0.386229 0.60885 0.867437 0.103277 -0.494643 0.789438 0.727836 0.327677 0.879215 -0.477142 0.181787 2.06369 -0.125 0.120496 -0.36774 -0.184926 -1.61324 -0.0652131 0.255928 0.729453 1.19386 1.13766 0.171853 0.565543 -0.542432 -0.126484 0.0427962 -0.285771 -0.227528 -0.671897 0.67804 0.329574 -0.589726 -0.0625844 0.279641 0.937685 -0.849286 1.18386 -0.0923126 -0.728261 0.81157 0.688576 -0.00673 -1.51403 -0.607106 -0.703824 -0.614903 0.189758 -0.170498 0.668518 1.15364 -0.227723 0.694763 0.713396 -0.290332 -1.19158 0.489243 0.500845 -0.107152 -0.115447 -0.616721 0.0479479 -0.880673 -0.173591 0.883259 0.183585 0.432067 0.691947 -0.804259 -0.490334 -0.137763 -0.944315 -1.14924 -1.32929 0.0535923 0.322299 1.07983 0.385907 0.120892 0.211757 -0.600918 0.733337 -0.110826 -0.49293 -0.846765 0.00898614 0.378268 0.277062 1.0088 0.927094 0.979919 -0.0727898 0.00269733 0.672549 0.304434 -0.181114 -0.0860174 -0.166227 0.0409766 -1.71474 -0.935267 -1.23007 -1.43483 0.412177 0.302469 0.452855 0.41013 0.0379316 0.387875 -0.821368 -0.622549 0.603142 0.956186 0.543162 0.157237 -0.728857 -0.776358 0.486946 0.207739 0.910569 0.381362 -0.163856 0.676468 -0.0963737 -0.264549 0.130346 0.119581 -0.79595 -1.65648 -0.593327 -0.226722 -0.183058 0.128657 0.529317 0.70122 -0.154484 -0.668569 -0.115685 -0.252291 0.894913 -0.00236783 0.230405 -0.178107 -0.962422 -0.787078 0.411055 -0.428755 -0.492323 -0.380584 -0.560776 -0.81689 0.497291 0.12751 0.160498 -0.126032 -0.905467 0.196917 -0.768373 0.245943 -1.00167 0.0115077 -0.729115 0.399099 -0.00547945 -0.351774 -0.138647 0.0992472 -0.0389035 -0.43532 0.3026 -0.107591 -0.261108 0.643362 0.345012 0.932554 -0.750107 0.881032 0.710928 0.512046 -0.344922 0.246694 0.523436 0.233623 0.590943 0.811422 0.32281 -1.00781 -0.258155 -0.290305 0.627819 -0.420693 -0.255104 0.692006 0.955208 -0.0982362 0.898569 0.799272 0.46237 0.295821 0.739934 -0.709552 -0.69459 -0.780511 0.298685 -0.245399 0.817438 -0.195044 -0.0889019 0.597058 -0.102196 -0.189244 -0.0425169 0.870172 0.0477613 -0.171667 0.361797 0.689709 0.259947 -0.129124 -0.877255 0.963744 0.0991546 -0.62682 0.544237 -0.0507593 0.287576 0.689322 -0.997436 -0.7987 -0.893735 -0.863094 
-0.938475 0.479598 -0.0739463 -0.344298 -0.25907 0.159695 0.151667 -0.873436 -0.211657 0.827412 -0.910098 0.522938 -0.326085 0.220445 0.442019 -0.37735 -0.764531 -0.139327 -0.198363 0.910124 0.740606 0.988216 0.316992 -0.8572 0.121145 0.0924406 0.642445 -0.947508 0.285501 0.266168 -0.92069 0.00284382 -0.744109 -0.0435109 -0.649429 -0.226916 0.946792 0.237686 0.721705 0.84685 -0.34115 -0.127921 0.0476842 0.149771 -0.74715 0.116491 -0.340666 0.629583 0.75466 0.352785 -0.463077 0.798249 0.931021 -0.687717 -0.694864 -0.502743 -0.693045 -0.678899 -0.0561923 -0.714698 -0.834392 -0.513271 0.547199 -0.874908 -0.263909 0.98066 -0.257432 0.749375 0.100229 0.577807 0.222981 0.691818 0.962551 0.635723 1.82401 0.775938 -0.0820111 0.252447 0.561554 -1.06456 0.535954 -0.164356 0.67955 0.724985 -0.849849 0.281383 0.3142 -0.37442 -0.0836891 -1.33254 0.00560429 -1.67962 0.330736 -0.922786 -0.940973 -0.301383 -0.395291 -0.442161 1.07825 -0.361045 -0.337043 1.00541 0.283706 0.69633 0.665937 0.072287 0.433553 0.587545 -0.145728 0.210337 0.890667 0.712442 0.160497 0.133092 0.56567 -0.834505 -1.21723 -2.06704 -1.76758 -0.0561323 -0.683439 0.581358 0.169179 0.205721 -1.12867 -0.700097 1.17693 0.111463 1.03827 0.183151 0.47035 -0.346542 -0.0293363 -0.107903 -0.0838566 -0.554307 -0.333726 -1.06472 0.340637 0.175052 0.860958 0.307115 0.10558 -0.622105 -1.54884 -0.344474 -0.304203 -0.838456 -0.376875 -0.948418 -0.784386 -1.14174 -1.16744 0.132418 0.171522 -0.0550904 0.412627 0.617844 -0.218435 0.199379 0.7217 0.654992 0.13066 0.946617 -0.796733 0.361708 -0.23839 -0.114513 -0.281716 0.196422 -0.249584 -1.89428 -1.2777 -0.0250123 -0.825438 -0.561223 -1.17925 -0.766393 -0.708776 -1.64856 -0.87173 -0.388452 -1.53582 0.226761 0.240618 0.420442 -0.170111 1.00867 -0.868827 0.949141 -0.524987 0.453565 0.271605 0.909414 0.811772 0.770318 0.50737 -0.250681 -1.30896 -0.875768 -0.449641 -0.567974 -1.57947 -0.421573 -1.80608 -1.20201 0.00617932 -0.621251 -1.15242 -0.874251 -1.20986 -1.02166 1.01383 0.103691 1.19815 0.853833 1.2271 0.857305 1.48179 0.106871 1.55114 -0.0743827 0.553029 0.299783 0.959899 0.351983 0.0897425 -0.396492 -0.433223 -0.703335 -0.604375 -0.700942 -1.4295 -1.39488 -1.22001 -0.966352 -1.55808 -1.7799 -1.21848 -0.811289 -1.01982 -0.931577 1.07341 0.0750723 -0.148418 0.8934 0.733224 0.268336 0.649977 0.117339 -0.321419 -0.477029 -0.613575 -0.401277 0.152337 -1.74994 -1.54922 0.0593984 -0.562235 -1.29587 -0.414002 -1.10578 0.179743 -0.207227 -2.10635 -1.66806 -2.09689 -1.16753 -2.47042 -1.62106 0.661237 1.06872 0.794786 0.395113 -0.337946 0.443128 0.723005 0.169402 -0.297384 0.25217 0.958617 -0.631994 0.630732 0.138147 -0.249334 0.778175 -0.0694956 -0.296794 -0.775059 0.599883 1.25665 -0.956011 -1.00279 -0.975928 -1.20113 -1.73556 -2.46691 -1.49875 0.136517 0.614417 -0.195478 0.571023 0.873869 0.982462 1.43137 -0.077126 0.403565 0.708304 0.338298 0.469594 -0.753684 -0.694127 0.476039 0.599021 -1.13819 -0.280312 0.298924 0.850604 0.614072 -0.0225509 -0.159663 -0.28922 -0.535917 -0.418339 -0.658646 -1.21484 0.661714 -0.071858 0.614929 0.13778 -0.0395684 0.311537 0.448935 1.19274 0.347784 -0.720573 0.342753 -0.392172 -0.405926 0.845536 0.0869106 -0.43207 -0.0693201 0.204619 0.15147 1.15257 0.0628972 -0.827911 0.339306 -0.00925452 0.48035 -1.04489 -1.31006 0.153114 0.193306 0.208182 0.282147 0.507219 0.422961 0.0226552 1.20253 0.927544 -0.480023 0.607865 -0.667959 -0.238265 0.573764 -0.340489 -0.801518 0.373824 -0.305538 0.574204 0.339865 0.913631 0.736054 -0.362275 -0.795174 -0.601062 0.119558 -0.164543 -0.152151 0.42718 -0.433344 0.412538 0.81282 0.419532 0.223768 0.524909 -0.115844 -0.0400746 0.485546 -0.41789 -0.993645 -0.0481002 0.031078 0.515128 0.309428 -0.469641 -0.611243 -0.708921 -0.227095 -0.361112 -0.00297675 -1.34717 0.0696257 0.422453 -0.728084 -0.520706 -1.05744 0.300087 0.511481 0.167822 0.226407 0.835522 0.24084 0.418124 -0.259156 0.747335 0.909213 -0.379118 -0.700778 0.652112 0.13847 0.16318 -0.346492 0.332217 -0.677221 0.922873 0.0368679 -0.111601 0.0777881 -0.83234 -0.527172 1.00209 -0.562438 -0.229128 0.386062 0.0268533 0.514456 0.255428 1.08017 -0.156045 -0.388502 1.1787 0.845697 0.92545 0.270862 0.700141 0.0637151 -0.0271526 1.16737 0.780206 0.327484 0.130402 1.02756 0.360385 1.21358 0.51589 -1.56531 -1.05252 -0.324057 0.533595 0.514514 -0.0977734 -0.540661 0.82006 0.461977 0.506713 0.777538 0.0774256 0.159868 -0.272134 0.445749 -0.501201 0.735155 -0.455867 0.230644 0.638119 0.63093 -0.288535 -0.498693 0.643501 0.782693 -0.47231 -0.77717 0.357732 -1.08999 -1.69475 -1.21329 -1.71069 -1.19887 0.161702 -0.118564 1.44361 1.18432 0.0844636 0.845593 1.36548 -0.494344 -0.645353 0.446268 -0.184012 0.234457 -0.554989 0.0946419 0.518862 -0.165398 0.97253 -0.151119 0.651608 -0.755955 0.227493 0.300784 -0.862213 -0.265439 -0.624928 -1.04417 -0.744072 -1.02861 -0.989403 0.333134 0.419019 1.09137 0.463332 -0.3996 0.0669352 0.563531 0.374862 -0.445329 0.362098 0.596226 0.123081 -0.499985 -0.0670339 0.246681 0.773397 -0.278851 -0.151507 0.457765 -0.740347 -0.619131 -1.03552 -0.6009 -1.96548 -1.77203 -1.41113 -1.89837 0.400358 -0.220382 1.10106 -0.332446 -0.310553 0.385821 0.515907 -0.781273 -0.76567 0.731031 -0.564652 -0.593344 -0.922117 -0.464522 -0.0561428 -0.621413 0.111215 -0.48194 -0.353387 0.22835 0.292346 0.652974 0.153424 -1.56175 -0.4457 -1.4954 -0.551905 -0.728485 -0.862221 -0.262776 0.420313 -0.966166 0.443685 -0.373149 0.188266 -0.469135 0.649134 -0.0140449 0.00219471 0.757985 0.865963 0.445227 -0.999298 0.809405 0.543447 -0.123481 -0.009472 0.0978696 0.223052 -0.238309 -0.881993 -1.09042 -0.0405702 -0.781236 -0.42241 -0.138277 0.407063 0.351047 0.100698 -0.992662 0.13448 -0.463928 0.376606 -0.875898 -0.954607 0.854505 0.416334 0.156758 -0.259316 -0.540124 0.511149 0.469804 -0.267959 0.515433 0.130608 -0.769429 -0.307478 0.701383 -1.07808 0.195413 -0.165735 -0.49078 -1.05408 1.04974 0.775345 0.44074 1.02462 0.4177 0.0081465 0.731059 -0.564137 0.814787 -0.0915374 -0.542494 -0.94372 0.273166 0.0938444 -0.770293 -0.0216901 -0.0933055 0.71813 -0.43405 -0.411762 -0.472713 -0.0438005 -0.639308 -0.818789 -0.711306 -0.162768 0.949919 -0.00857373 0.208038 1.07067 -0.32938 0.851733 0.00969654 0.887247 1.08733 0.615293 0.158708 -0.910944 -0.0846738 0.141048 0.527996 0.134861 0.51642 -0.0095436 0.292834 -0.132855 0.974165 -0.0290346 -0.741859 0.282069 0.589225 0.367899 -0.124249 -0.205078 -0.170874 -0.282189 1.2112 -0.102689 -1.27021 0.251172 -0.166809 -0.477328 -0.489452 -0.289539 -0.93155 0.445969 -0.984623 0.335476 0.309383 -0.753899 -0.109262 -0.404672 0.708915 -0.251397 -0.0540291 0.299985 0.8205 1.1917 -0.119088 0.739497 0.304898 -0.28696 0.717072 -0.327079 0.388158 0.0348321 -0.667129 -1.24686 0.530105 0.119114 -0.125087 -0.442319 -0.37715 -1.00307 0.0940625 -0.339447 -0.390195 0.451521 0.0923062 0.18179 -0.660294 -0.807617 0.854793 0.422077 0.802175 1.01204 -0.432805 0.86625 -0.663311 -0.362212 -0.677048 -0.934238 0.10443 -0.18283 0.621699 -0.840827 -0.443727 -1.00205 -0.806438 -0.624682 -0.319897 0.322533 0.625439 -0.45844 0.679578 0.435469 -0.292886 -0.873592 -0.386334 -0.501786 -0.631327 -0.733335 -0.668465 0.705516 -0.422534 0.860702 -0.254104 -0.892087 -0.772569 0.499054 0.0897389 -0.701975 0.216976 -0.648305 0.633106 0.568285 0.896237 0.0965167 -0.81434 -0.890133 0.97235 -0.136509 0.60918 0.550829 
-0.119297 0.355388 0.75219 -0.542362 0.577754 -0.27039 -0.929502 0.751323 -0.441035 -0.193607 -0.801631 -0.923886 0.893166 -0.83493 -0.031153 -0.688819 -0.860352 -0.2432 -0.0919201 0.093838 0.915161 -0.629586 -0.304671 -0.473558 -0.254617 -0.0903043 0.0734581 -0.747978 0.787713 -0.276534 -0.983724 -0.361526 0.807617 -0.506339 0.118206 0.56503 0.801838 0.631099 -0.520885 0.0816037 0.666816 -0.742561 0.45268 0.671854 -0.664415 0.958398 -0.232052 -0.254145 -0.676873 1.02876 0.146167 0.368181 0.601893 -0.593027 0.49881 -0.608134 -0.513962 0.207376 0.0234388 0.662175 -0.412483 1.14599 0.312808 -0.150488 0.893642 0.679229 -0.454516 0.470923 -0.698393 -0.33631 -0.0174144 1.09863 -0.831898 -0.531566 -0.506995 0.170854 0.605871 0.763965 0.648577 -0.531805 -0.697961 0.220267 0.773347 0.820314 -0.124973 0.779993 -0.112218 0.256641 0.67591 0.9268 0.123605 1.52627 -0.085949 0.62944 0.0261828 1.37357 -0.043736 -0.53884 -0.894301 -1.42616 -1.03787 -1.36682 0.276975 -0.122898 -0.821723 1.00824 -0.198181 0.496257 -0.263008 0.739821 -0.265831 -0.286022 0.437605 -0.0788695 0.359236 0.544183 0.369759 0.100238 0.907149 0.0433349 -0.0968707 0.262896 1.09234 -0.530493 -0.0731479 -0.385376 -0.906311 -0.109509 -0.138062 -0.110177 -0.515138 0.212996 -0.843605 -0.611731 0.377487 -0.822245 -0.686094 -0.696581 -0.473604 -0.904323 0.456526 -0.26626 0.305397 0.572326 0.184307 -0.133788 0.248722 0.856846 0.241467 0.500254 -1.07397 -1.21773 -1.08802 -0.345536 -0.782087 -1.82948 -0.839944 -0.698629 -0.724793 -0.649756 -1.05685 0.0859511 0.65865 0.274307 -0.114923 -0.69662 0.266526 -0.0423608 0.389691 -0.453133 0.400288 0.0489594 0.339302 0.639121 0.491496 0.580932 0.376887 0.731525 0.472544 -0.0328781 -0.556046 -2.05757 0.256578 0.0767079 -0.7114 -1.32699 -1.46385 -0.849284 -0.192819 -0.446519 -0.800443 -0.880402 -0.0405971 0.43766 0.752418 -0.565966 -0.906125 -0.966454 0.177285 1.14185 1.10568 0.69243 0.462019 0.5942 0.0850221 -0.138953 -0.673369 -1.0498 -0.717015 0.664316 -0.475993 -0.541876 -0.201963 0.0164789 -0.595246 -0.626777 0.530571 -1.36483 0.206686 -0.0546489 -0.264433 -0.667494 -0.167429 -0.53679 -0.417035 -0.354889 0.625819 0.985273 1.4454 0.799455 0.850781 0.451993 0.878305 0.349671 -0.284216 -1.71326 -0.832622 0.595279 0.482901 0.521034 0.155619 -0.774593 0.300927 -0.773402 -0.686069 -0.0645218 -1.5218 0.0743581 -0.466449 1.16617 -0.271382 0.382797 0.00936918 0.444293 -0.605079 1.3784 0.682195 1.2628 0.690101 0.744926 0.866455 0.108312 -0.496769 -0.119418 -0.455095 0.154803 0.40909 1.09512 0.943513 -0.592784 0.0304289 -0.962734 -0.561937 -1.04977 -0.135512 0.00161965 1.14693 -0.395124 0.492189 0.879251 -0.444807 -0.854426 0.053664 1.40553 1.72638 1.28957 1.41972 0.562658 0.432318 1.72023 -0.300216 0.303473 -0.217038 0.495659 0.487346 -0.380258 0.287482 0.947923 1.0666 0.85543 0.507722 1.22522 0.133912 -0.111223 0.438264 -0.783681 0.515103 0.741325 -0.0785241 0.423854 0.405511 0.403357 1.29491 -0.287367 -0.204713 -0.49982 0.738946 1.35968 0.341958 -0.825007 -0.913758 -0.0940657 0.418962 -0.479308 -0.503609 1.44403 1.26214 0.192376 1.29044 1.31043 0.589628 0.28572 -0.491219 -0.29972 -0.59644 -0.145848 0.102206 0.403677 0.148972 -0.320544 0.382275 -0.111649 1.17505 -0.492987 0.959638 0.716645 0.597946 -0.982444 -0.650529 0.326408 -0.074234 -0.669085 -0.170993 0.213948 0.445651 0.0914402 1.26415 0.930518 -0.235106 0.853472 0.71387 1.10465 -0.160831 -0.135045 -0.868954 0.977473 0.234245 0.519212 0.491116 0.697476 -0.732553 -0.163196 -0.520769 0.294485 -0.271916 -1.30409 -0.606882 -1.60351 -0.584528 0.125145 -0.643276 -0.0736106 -0.256342 0.418134 -0.22874 0.0557269 -0.177034 0.615714 -0.292775 -0.571155 -0.164358 -0.0353099 0.488678 -0.426838 0.854343 0.622126 0.780011 -0.364499 0.249048 -0.423234 1.22076 -0.672986 0.410846 0.33001 -0.140285 -0.230773 -0.939222 0.342961 -0.655996 -0.7998 -0.642083 -1.01464 -0.312034 0.5357 0.889493 0.0364226 0.08224 1.39784 -0.969764 -0.780219 0.857011 -0.387203 -0.654118 0.76349 0.125686 1.04729 1.13419 -0.260415 -0.105272 1.32092 0.238456 0.444188 -1.25126 -1.58448 -0.762127 0.154054 0.707342 -0.280781 0.208725 0.279403 -0.96047 0.333368 0.238884 -0.569762 1.25719 0.0477549 0.533409 0.892928 0.909411 0.51738 0.411061 1.35791 0.199523 -0.581637 0.832294 -0.314274 1.22683 0.619388 1.80079 0.64035 1.08617 -0.345337 -0.561091 -0.376523 -0.202959 0.655638 0.159273 0.670468 0.401543 0.189083 0.452323 -0.439677 1.102 -0.260853 0.54321 -0.812795 0.822752 0.491977 0.979269 -0.46872 0.556645 -0.476895 0.642634 0.451017 0.889379 1.24165 1.12843 0.194917 -0.939303 -1.52677 -1.16877 -0.819542 -0.311794 -0.00984991 0.739221 0.162138 0.0470907 0.147551 0.165908 0.727763 -0.620635 0.116349 0.844877 -0.142271 0.200029 -0.85288 -0.0555642 0.23473 -0.592198 -0.383438 -0.415548 -0.460536 -0.175159 1.24277 0.94108 1.45499 -0.311066 -1.74556 -1.87319 -0.865542 -1.42807 0.385931 -0.624323 0.362803 0.519344 -0.626556 -0.966263 0.450707 0.134219 1.10619 0.366236 -0.881161 -0.908811 -0.824311 1.29993 -0.517489 0.16111 0.00595519 -0.272041 0.0127468 0.10063 1.46123 1.94799 2.01949 -0.313609 -1.02057 -1.54358 -0.627944 0.959923 -0.060708 -0.653797 0.116813 -0.500542 -0.686065 -0.743656 -0.800385 0.104627 0.660512 1.01307 0.294229 -0.202063 -0.110376 -0.550895 -0.361672 0.0176085 -1.0398 -0.60173 0.143498 -0.741057 1.4028 1.43695 1.51296 -0.133567 1.0424 -0.539825 0.449326 -0.326884 0.958238 -0.540007 -0.779128 -0.354317 -1.24562 -0.106708 -1.00851 0.253061 -0.118381 -0.444058 0.640187 0.151778 0.0698123 -0.574046 -0.375108 -0.304888 -0.042845 -0.0452182 -0.409744 0.270869 0.263201 1.31144 0.110862 0.739789 1.79764 0.675157 0.610628 -0.63868 -0.143493 -0.204396 -0.233736 -0.364651 -1.02679 -0.534208 -0.912715 -0.0595889 -0.397141 -0.00542674 -0.217139 -0.0473658 -0.800334 0.138003 -0.537621 0.440246 -0.46951 0.164072 -0.251324 -0.704225 0.288358 1.18691 0.647984 0.964415 1.22471 0.845567 0.94237 -0.23736 0.235865 0.26556 -0.943281 -0.992596 0.413386 -0.146161 -0.223662 0.176868 0.620835 0.768942 0.206641 -0.743048 -0.454336 0.339139 -0.311793 -0.596894 -0.416821 -0.590304 -0.469359 0.633028 0.0915538 0.451313 1.63041 1.15038 1.63665 1.14631 0.942128 1.0064 -0.416132 -0.750402 0.530032 -0.225008 0.506307 0.465167 0.0742917 0.0977193 1.17424 -0.27313 -0.770135 0.191385 -0.450407 -0.475059 -0.328103 -0.0080641 0.904502 1.53819 0.767542 0.276195 1.07336 0.040639 0.441075 0.979353 1.61134 0.168056 0.760795 -0.952282 0.0436002 0.405715 -0.282867 0.874149 1.65584 1.53595 -0.288311 0.416604 1.1651 -0.169067 0.907651 -0.996434 0.189814 0.266789 -0.445599 0.0775127 0.957889 -0.51378 0.170045 -0.371834 1.59284 1.29766 0.742739 0.812152 1.11533 -0.271426 -0.700748 0.74241 -0.171299 0.30281 0.984364 -0.407195 0.0613251 -0.119281 0.331843 -0.408189 -0.605701 -0.454472 -0.703482 0.015847 0.0455071 -0.231359 -0.946558 -0.708344 -0.186732 -0.920314 -0.278327 -0.591271 -0.805636 0.323413 -0.129095 -0.900048 -0.825309 0.705974 -0.627433 -0.953573 -0.854867 0.445793 0.716919 -0.797055 -0.223303 0.0145253 0.521932 0.366612 -0.138654 -0.531393 -0.478744 0.17478 0.313761 0.98413 0.558821 -0.41827 0.924422 -0.0793592 0.0407629 0.490189 -0.869259 -0.785941 0.424055 0.949156 -0.164663 0.00630262 -0.637074 -0.390545 -0.85406 -0.968932 0.922178 0.518906 -0.802152 -0.0314275 0.709342 -0.0818201 -0.941038 -0.873653 0.0788293 
-0.114292 -0.911435 0.760979 -0.553329 0.638597 -0.798749 0.324331 -0.217069 0.334368 0.839526 0.963114 0.330077 0.0862207 0.96795 -0.393706 -0.343596 -0.815877 -0.100487 -0.0887902 -0.00105707 0.0848007 -0.694587 0.43436 0.200843 0.369549 0.111301 -0.799982 0.818964 0.825251 0.661578 -0.749384 -0.835671 -0.683251 -0.921173 0.222366 -0.25824 -0.362362 -0.112586 0.305955 -0.790847 0.101863 0.903064 0.167302 0.608015 0.418401 0.63038 0.577838 0.654579 0.579972 0.0588725 0.173929 -0.177287 0.929191 -0.994891 -0.56376 0.0373024 0.409711 0.868108 -0.468302 0.588483 0.368956 0.0113731 -0.538048 0.730658 0.201589 -0.711435 -0.967018 0.692367 -0.499687 -0.33992 -0.269225 0.749723 1.0966 0.116668 -0.689933 -0.368407 0.782384 0.248921 0.294508 0.176244 -0.303174 0.752177 -0.638652 -0.896491 -0.387616 0.392207 -0.15123 0.0323714 -0.151773 -0.329835 -0.92103 -1.16702 -0.726111 0.337606 0.810004 -0.153658 1.63411 0.968164 0.87764 1.1273 0.641681 0.625618 -0.703445 0.0403389 0.128826 0.553419 0.848976 -0.517295 -0.0964587 0.673486 -0.0157552 0.159666 -0.184179 0.971687 0.73078 0.118392 -0.10125 -0.225556 -0.204743 -0.759159 0.305966 0.618598 -0.534318 0.626255 1.86397 1.9828 0.416849 0.881395 0.231477 -0.378997 0.702306 -0.0513565 0.275334 -0.372221 -0.838529 0.648324 0.548351 -0.431804 -0.337057 -0.905451 -0.613514 0.393579 0.956786 -0.41549 -1.32687 -0.084452 0.529322 -0.645799 -0.578516 0.743089 1.23915 0.0753379 1.78936 0.187822 1.56311 0.860736 0.0036386 -0.697574 0.172822 -0.624149 -0.641183 -1.00557 0.440076 1.13031 -0.0601745 1.17377 0.444646 -0.523423 -0.339702 -0.739013 -0.617934 0.850059 -0.378122 -0.755915 -0.0726759 -0.268774 0.229144 -1.21088 0.84875 0.824605 1.61747 0.414833 1.01738 0.37044 -1.00842 -0.799602 0.336568 0.50516 0.270941 -0.56637 0.495412 -0.686301 0.372076 0.868636 -0.21971 -0.169225 -0.974914 -0.36481 -0.352921 -0.795778 -0.207045 -0.353581 -0.088681 -0.251139 -0.376862 0.474736 0.693925 0.130928 1.14147 1.09374 0.445407 -0.715355 0.521458 -0.496002 0.399857 0.328025 0.198848 -0.447684 -0.379684 -0.700987 0.486664 0.418739 0.183995 -0.433088 0.788812 -0.0106914 -0.168769 -1.16535 0.646703 0.482781 0.490452 -0.194421 -1.48794 0.0278886 0.446572 2.09932 1.36355 0.170901 -0.420374 0.926663 -0.627352 0.288596 -0.0625481 0.565971 -0.44238 -0.00796337 0.223051 -0.230898 -0.161058 -0.0262483 0.114856 0.111826 -0.480392 -0.952455 -0.652624 -0.553788 0.109335 -0.198548 -0.217603 0.282504 0.529785 -0.570573 0.349464 0.875651 0.585361 0.374637 -0.784828 -0.444886 -0.28214 0.939626 -0.473587 -0.617026 0.227959 0.953068 -0.522843 -0.690636 1.03485 -0.819897 0.747158 0.665118 -0.452864 -0.953375 -0.765406 -0.199766 -0.731913 -0.717102 -0.360157 0.0170785 0.148654 0.904024 0.0515484 1.34746 0.909415 0.90212 -0.109978 0.723051 -0.133564 -1.45951 0.0490742 -0.381092 -0.115733 -0.779916 -0.828808 -0.118232 -0.423199 -0.983465 -0.972557 0.999451 0.310587 0.441486 -0.796265 -0.091654 0.614271 0.00129997 -0.633468 0.326799 0.313816 0.774201 0.227711 0.833319 0.994616 -0.292982 1.43264 0.417392 0.127577 -0.397673 -1.05981 -0.132739 0.128647 -0.220832 0.816398 -0.195363 -0.362264 -1.4764 -0.45907 0.748955 0.242347 0.982822 -0.46138 -0.0251215 -0.606049 -0.0718302 0.594985 -0.606152 0.0621353 1.42801 0.528046 0.528832 0.588253 1.36468 0.741227 0.543803 0.59467 1.01308 -0.145312 -0.323372 -0.240831 0.0473457 -0.58483 0.115895 0.058741 -1.12694 0.663109 -0.375984 -0.125828 0.908534 0.228213 0.82663 -0.561826 0.627339 -0.587296 0.115577 -0.582058 0.237945 -0.136803 0.970334 0.633031 0.889966 0.0404637 1.43802 1.17939 1.81013 1.20241 0.811353 1.07741 0.859079 -0.335731 -0.182564 -0.475315 0.900577 0.896832 -0.0105899 -0.146393 0.260847 -0.10748 -0.20929 1.25025 -0.295111 -0.271113 -0.181849 0.20456 -0.0284185 0.374503 0.590936 -0.227897 0.295004 0.935124 1.15315 0.558002 1.70737 2.52037 2.71922 0.642463 1.02106 -0.748104 -0.0210678 0.118702 -0.171594 -0.222926 0.24237 0.557894 -0.0223295 0.0981855 -0.478933 -0.367884 0.11209 0.377724 0.379558 -0.0678104 -1.16521 -0.478325 0.557312 -1.06634 -0.237299 0.724181 0.428099 0.0790842 0.992964 0.618726 1.08167 0.438597 0.0995563 0.646418 -0.473102 0.224385 -0.809177 0.371087 0.429918 0.993183 0.628683 0.440937 0.179641 0.209793 0.025476 0.812712 0.0425418 -0.876785 -0.37577 -0.214725 -1.11692 -1.44977 -0.13181 -0.289402 -0.471761 -1.84632 -2.48898 -1.67267 0.0545259 0.190109 0.292031 -0.67178 -0.406512 0.372934 -0.588373 0.103499 0.541673 -0.334613 0.479317 -0.89875 -0.595307 0.361219 -0.724215 -0.992039 -0.218084 0.0594406 -0.952685 -0.375737 -1.29737 -0.938329 -1.16993 -1.81757 -0.674038 -1.312 -1.89372 -2.38019 -1.81956 -1.54391 0.1731 1.10823 -0.210636 1.18514 -0.355861 0.160221 0.915749 -0.883069 0.147062 -0.553975 0.83626 0.857436 0.136969 -0.030594 0.100468 0.710786 0.222104 -0.00274585 0.55184 0.0707632 -0.186768 0.0821107 -1.24591 -1.28215 -1.72065 -2.11402 -0.77022 -0.559648 -0.0674764 0.0599276 0.118823 0.441398 0.66506 0.6883 -0.804865 0.797357 -0.976681 0.433356 0.63731 -0.522587 -0.822051 0.0905876 0.341533 0.284797 0.194588 -0.43717 -0.557803 -0.970586 -0.0966502 -0.511304 -1.87619 -0.701393 -0.380541 -0.118797 0.247927 -1.19727 -0.805359 -0.703323 -0.589945 -0.321583 -0.462653 0.177225 -0.726249 -0.0135807 -0.446049 0.228005 -0.022613 0.178328 -0.0470333 -1.20114 0.307336 -1.00329 0.593307 0.371058 0.0130604 -0.29897 0.850944 -0.78292 -0.137214 -1.18216 -1.12589 0.0647492 -0.989832 -0.648562 -0.836869 -0.992101 0.80421 -0.901372 -0.878574 -0.133157 0.66625 -0.571767 0.450401 1.07775 0.206114 0.833695 -0.672605 -0.125701 0.959578 0.425357 -0.448909 0.228465 -0.39873 0.630992 -0.293407 -1.32009 -1.56518 -0.847605 -0.453368 -1.46752 -0.488696 0.458602 -0.574063 -0.658797 -0.336085 1.09964 0.270322 -0.344255 -0.257424 -0.62096 -0.0683518 -0.959648 0.450464 0.964419 0.577102 0.621055 0.753319 -0.0677196 0.202769 -0.197834 0.00845985 -0.0442434 -0.0119653 0.0568945 -1.4654 -1.4105 -0.417795 -1.08111 -0.935176 -0.321137 -0.00182309 -0.842097 -0.15422 -0.724005 -0.670067 0.328973 -0.736869 0.740801 0.7617 -0.581331 0.850415 1.28445 0.387305 0.469679 0.736643 -0.167147 0.0231699 -0.271578 0.476928 -0.658437 -1.6547 -2.08112 -1.69234 -1.67689 0.233397 -0.137046 -1.08236 -0.962192 -0.886707 -0.886793 0.434125 -0.317748 0.731771 0.869804 -0.348369 -0.9711 -0.909429 0.570597 0.449095 -0.12536 1.07086 0.886254 0.390419 0.760777 0.556986 -0.0485274 -0.358666 -0.897733 -0.888093 -0.390745 -0.630086 -0.660532 -1.76249 -0.701331 -1.83646 -0.73013 -0.878601 0.547499 0.116679 -0.530182 -0.800635 -0.464001 0.444014 -0.251769 -0.92471 0.287353 0.791932 -0.0714325 0.313051 -0.15107 -0.457554 0.296254 -0.522511 -0.984181 -1.17382 -0.524373 -0.578847 -0.272714 0.228766 -0.63022 0.121876 -0.479755 0.212288 -0.250361 -0.350236 0.491009 0.643957 0.89665 -0.124683 -0.907344 -0.648976 0.933142 0.054072 -0.674851 -0.45317 -0.479242 0.607099 -0.328998 0.0844739 0.205483 -0.696354 -0.200735 -0.942138 -0.652522 -0.183369 0.974786 -0.223303 -0.481881 -0.00408957 -0.969472 0.0377304 -0.0868244 0.702783 -0.00322947 -0.0255746 0.190744 -0.949739 -0.691225 -0.628956 -0.418134 -0.0116276 -0.0245674 0.425036 0.753407 -0.990376 0.700904 0.706977 -0.889072 0.682378 0.296327 -0.947508 -0.737847 0.820975 -0.23963 0.675942 0.0616138 0.381818 0.250038 0.376812 -0.851131 -0.664475 0.387494 0.0359813 0.757622 0.34843 -0.961425 -0.608509 
-0.372356 0.33842 -0.962889 0.181426 0.809316 0.247648 0.0810077 0.73325 0.311059 0.704884 0.0951924 0.918559 -0.0749921 -0.0738711 -0.481782 0.969203 0.00797422 -0.161187 -0.446663 -0.535933 0.709787 0.423593 -0.936414 0.397189 -0.137002 0.40141 0.972167 0.715751 0.0732749 0.367587 0.989201 -0.194278 0.804667 0.298617 -0.453363 0.749326 0.594115 -0.458859 -0.54604 0.621587 0.898744 -0.356002 0.605149 -0.404972 0.360479 -0.44611 -0.066301 0.243761 -0.53922 -0.485098 0.199853 -0.875635 0.763758 0.17982 -0.758441 0.953795 -0.919858 -0.382904 0.0763459 0.606774 0.940486 0.521916 -0.768327 -0.816572 -0.243968 1.03982 -0.726439 1.06891 0.0487927 -0.448223 -0.206332 -0.2011 -0.0616121 0.0780754 -0.404533 0.0290877 -0.48403 -0.731937 -0.275001 0.68434 1.04933 0.915285 -0.894059 -0.286852 0.644887 0.626273 0.0153232 0.263458 0.147002 -1.06645 -0.58829 0.223558 -1.05096 -0.461518 -0.272088 0.0484183 1.31748 0.339802 0.262937 0.723707 0.5419 0.191346 -0.431971 -1.30831 0.0157082 -0.776789 -0.990226 -1.31896 -1.18394 -1.15544 0.891229 -0.471533 -0.438948 0.839422 0.163847 -0.896594 -0.593833 -0.844587 0.26979 -0.0242961 0.731175 -0.434507 0.879457 0.242978 0.33576 -0.0369844 0.854691 0.796973 0.379158 -0.296999 0.0120324 -1.97655 -1.0984 -1.65335 -0.223105 -1.40576 -1.02066 -0.492012 -0.584345 0.466789 -0.646657 -0.490872 0.252777 0.246356 -0.240848 -0.71333 0.486058 -0.953182 -0.507934 0.334545 -0.099412 0.0628442 0.57787 -0.12299 1.09789 0.254369 0.084953 0.481523 0.298705 -0.969302 -0.598185 -1.57952 -0.961172 -0.571406 -0.0881002 -0.896649 0.917417 -0.154273 0.87225 0.674904 -0.488924 0.0209977 -1.03283 -0.83499 -0.438933 0.327445 -0.981067 -0.0677772 -1.13028 -0.619902 0.355959 -0.396176 1.16134 -0.519353 0.665884 -0.868746 0.196376 -0.652735 -0.315812 -1.21146 -0.756763 -1.56482 -0.543248 0.207571 0.922991 -0.496811 0.236061 0.0621462 -0.670547 -1.16918 -1.3227 0.07479 -1.0324 0.548944 -1.32541 0.116454 -0.815886 0.186787 -0.164202 1.52028 -0.217732 -0.0942097 0.217642 -0.454156 -0.755479 -0.491357 -1.55403 -0.104479 -0.371961 0.191046 0.0496452 -0.116783 -0.94668 0.0547197 -0.19187 -1.01469 -0.0992038 -0.296256 0.0241239 -0.441569 -1.34507 0.220834 -0.937149 0.192839 -0.195601 0.159522 -0.812971 0.630723 0.261382 -1.41388 0.511568 -0.479237 -0.312096 -0.335469 -0.474568 -0.603337 0.0798161 -0.895536 -0.964604 0.11149 0.145265 0.576831 0.897031 0.869431 -0.623827 -0.305876 -0.0838116 -0.816202 -0.725779 0.0234973 -0.0881202 -0.977898 -0.589861 0.30482 -0.270164 -0.618577 0.129756 0.225508 -0.0913362 0.932065 -0.65828 -0.69486 0.0287825 -0.330052 0.212655 -0.916803 -0.342203 -0.822317 -0.386118 -0.846309 -0.133702 -0.217773 -0.613878 -0.438542 -0.526087 0.838694 0.921176 -0.663102 -1.02137 -0.402517 -0.69269 -0.62402 -0.144278 -0.266844 -0.478057 0.533688 -0.744332 -0.389673 0.077489 -1.06294 -0.897016 0.0320505 -0.862226 -0.217177 0.504328 0.739539 0.254699 0.724601 0.342814 0.546962 -0.48556 -0.989877 -0.128208 -0.342379 0.828644 -0.011055 -0.713612 -0.850593 0.0935688 -0.38437 -0.369964 -0.624164 -0.215859 0.433957 -0.803862 0.405151 -0.475587 -1.35356 -1.01797 -0.414153 0.152904 0.562206 0.497452 -0.612462 -0.893994 -0.330668 -0.791131 -0.57689 -1.11227 0.250455 0.264402 -0.345483 -0.0796073 0.240277 -0.632545 -1.44561 -1.04807 -0.970999 0.0124591 -0.744167 -1.13473 -0.865596 -1.21225 -1.00964 -1.39141 -0.541313 -0.638979 -0.604604 -0.337532 -0.662313 0.727891 0.799522 -0.782755 -0.42967 -0.931394 -0.485649 0.626781 -0.640405 0.769108 0.151805 1.16312 0.370312 -0.415761 -1.09324 -1.7416 -1.83765 -0.405101 -0.812519 -0.475404 -1.95801 -1.51322 -0.989349 -0.890056 -0.812684 -0.123096 0.156693 0.965358 1.42931 1.00314 -0.0326426 0.242964 -0.413312 0.873098 -0.286965 -0.264337 0.332552 0.152262 0.151261 0.153403 0.618415 0.0450877 0.102968 -1.51801 -0.329658 -1.81852 -1.34299 -1.92695 -0.707024 -0.812413 -1.11962 0.770994 0.653897 0.642609 0.453683 0.0368669 -0.0397427 1.04459 0.48902 -0.26996 -0.119939 -0.605981 0.858551 0.269873 0.688047 -0.417641 0.870972 -0.779821 1.04734 1.52079 1.32071 -0.211743 -0.419407 -0.812303 0.433497 -1.12759 -0.99323 0.959882 0.482108 1.55901 1.16011 0.424015 0.672159 -0.404817 0.515726 -0.386714 -0.664994 0.532787 -0.471425 -0.7677 0.759861 0.465995 -0.443196 0.48022 -0.658342 -0.0150691 0.0118933 1.38213 1.87355 1.32847 -0.264489 1.34717 -0.329604 1.74145 0.663487 2.26514 2.43444 0.754814 0.579364 0.326179 -0.650543 -0.578454 1.02118 0.0797729 -0.145483 0.20889 -0.63392 0.0491056 -1.00341 -0.898792 0.249227 -0.471266 0.134918 0.212352 0.405548 1.95378 0.804539 1.4734 0.605862 1.23555 1.21412 0.589964 1.61183 1.61188 2.17427 1.32225 0.618441 -0.360826 -0.381161 0.624881 -0.917429 0.953304 -0.161794 0.258913 -0.814555 0.707231 -0.878943 -0.555395 0.339905 -0.688034 -0.114072 -0.367294 -0.372408 0.197713 0.850657 0.822601 0.522583 0.511137 0.691517 0.327261 1.27988 1.28424 0.71293 -0.00389092 -0.14835 0.554907 -0.240175 0.427125 0.449596 -0.108426 0.847363 0.264935 -0.25779 -0.989868 0.573928 -0.422708 -0.513903 0.442172 0.407773 -0.459779 -0.111812 -0.245678 1.58544 1.26506 0.681827 0.989968 1.33607 1.80704 1.60258 -0.451011 -0.136883 -0.960839 0.11514 -0.0810924 0.229041 -1.08903 -0.236425 1.3919 -0.379092 -0.38411 0.995727 0.72631 0.0668136 -0.0114893 0.620647 -0.225163 -0.779592 -0.00790644 -0.256189 1.33738 0.288854 1.23189 1.24804 0.405064 -0.0841085 1.41984 0.603429 0.823257 0.270527 0.552202 0.892336 -0.583194 0.444503 -0.172679 0.484357 0.235619 1.00745 -0.94472 -0.972228 0.585802 -0.445842 0.218011 -0.874405 0.540144 -1.01748 0.295084 -1.10111 0.89804 0.601581 0.731743 1.21129 0.830556 0.0578266 -0.000443647 0.623153 -0.792596 -1.53516 1.00502 0.845531 0.606662 0.0545004 -0.816354 0.551234 0.95154 0.966527 -0.34666 -0.926511 0.937252 0.729111 -0.692663 1.21034 -0.872001 -0.310709 -0.676834 -0.589818 0.711361 -0.140285 0.0679305 1.21317 1.28163 0.112506 1.31028 -0.305631 0.435549 0.65041 -1.15127 -0.817074 0.0196902 -0.663032 0.6763 0.285554 0.167523 0.694861 -0.99518 -0.897153 0.752795 -0.940661 0.339743 0.939058 -0.579439 -0.275214 0.621542 0.148708 -1.25679 -0.471156 0.204716 0.585424 0.794329 1.38062 -0.561627 -0.232898 0.0474497 -1.57374 0.00507631 -0.449237 0.118226 -0.439989 -0.715234 -0.363683 1.30895 -0.502364 -0.373117 -0.609241 0.667523 -0.708795 0.895934 0.777712 -0.479457 -0.0908136 0.767253 -1.48599 -0.265515 0.226282 1.2169 0.463555 0.67701 -0.062619 0.860862 -0.79585 -0.177847 -0.0860767 0.353017 -0.178178 -0.376822 -0.291384 0.195734 0.072127 0.152614 -0.335414 0.577016 0.513047 0.742175 0.87619 0.344166 0.41324 -0.35462 -0.37901 -0.136477 -0.0671367 -1.04454 -0.132348 0.550642 0.657159 1.3035 1.1332 -0.148431 -0.102979 -0.00968183 -0.30373 -0.00815657 0.417904 0.36194 -0.429581 0.853902 0.847809 -0.23187 0.640522 0.382971 -0.794671 0.635609 0.179895 0.309458 -0.057774 -0.851955 -0.58599 0.73855 0.007324 -0.656858 0.717383 0.378063 0.239037 0.254729 -0.988372 -0.35002 0.0400229 0.0089121 -0.0487048 -0.898586 -0.179303 0.234554 0.848237 -0.760965 0.999323 -0.974227 -0.330114 0.62865 0.523545 0.875057 -0.376873 -0.768059 0.0635609 -0.059434 0.152505 0.106587 -0.876663 0.548983 0.596747 -0.937992 -0.398602 -0.095124 -0.466902 -0.894237 -0.27115 0.648006 0.145126 0.0943937 0.331217 0.151769 -0.258265 0.859981 -0.342204 0.349162 -0.531907 0.199255 -0.258705 
0.911618 0.002472 -0.0492874 0.364486 -0.414341 -0.176164 0.523752 -0.302163 0.498547 -0.474682 0.242858 -0.265344 0.269326 0.765195 0.580776 -0.649602 0.662232 -0.499798 -0.932586 -0.412693 -0.2268 -0.283012 -0.544195 -0.697272 0.223753 0.0974456 -0.499985 0.424482 0.648427 0.804156 -0.605804 0.826244 0.857472 -0.664362 -0.67927 -0.533302 0.632796 0.950397 -0.361918 0.720593 -0.756079 0.226101 -0.413835 -0.146817 0.776148 -0.963962 0.247313 0.935402 -0.719579 0.137024 0.0130103 -0.788808 0.0537463 0.85534 0.83051 0.118201 -0.871456 0.861712 0.176325 -0.650715 0.270538 0.636777 0.623524 -0.499037 -0.625373 -0.0051526 -0.296945 -0.46565 0.339064 -0.0562648 -0.281673 1.06527 1.08933 -0.0874436 -0.958829 -0.771505 -0.776947 -0.571898 0.952319 -0.464911 -0.671463 0.778835 0.0467676 0.0857722 -0.928648 -0.504801 0.790175 -0.813062 -0.211782 -0.407162 0.437944 -0.354095 0.525503 0.669661 1.15773 0.833674 0.188265 1.41509 1.41131 0.440036 1.10867 1.07622 0.31297 -0.568543 0.921674 0.128303 -0.0643053 0.33571 -0.873928 0.750946 -0.258874 0.532078 0.943175 -0.945051 0.097991 -0.00511105 -1.02736 0.306513 -0.0731531 0.686946 -0.468428 -0.00555435 1.11053 -0.101526 -0.14289 1.2632 -0.119551 -0.325432 0.0378159 0.756722 0.296721 0.747796 1.015 -0.681847 0.217983 0.895731 -0.308898 0.0638639 -0.923499 -0.240894 -0.749077 0.77343 -0.873983 0.0374552 -0.543854 -0.217702 0.171897 0.331686 0.766 -0.619155 -0.118829 -0.34547 0.803909 0.820634 0.118544 1.1177 1.4585 -0.399082 1.38179 0.500556 -0.00944616 -0.298013 -0.299437 -0.576695 0.08645 -0.381396 0.647458 0.681139 0.746574 0.931257 0.336508 -0.066154 0.518937 -0.196236 0.707604 -0.279674 -0.6053 -0.334533 -0.422901 0.910649 -0.195471 0.634852 -0.387529 0.0274755 -0.110365 0.573554 -0.0121085 0.553237 0.0502441 0.0950684 0.207 -0.22387 0.52009 -0.680425 -0.943521 -0.861751 -0.772149 -0.819374 0.739319 0.0909664 -0.895564 -0.0324602 0.0572709 0.550273 0.310645 0.699413 0.144572 0.578258 0.343794 -0.163047 0.55311 -0.186888 0.279056 1.57568 0.506591 -0.00840336 0.0570976 0.632092 -0.181343 -0.19913 0.533187 -0.767846 0.228802 -0.547472 0.625599 0.0329943 -0.974539 0.0133232 -0.894253 -0.268332 0.0652957 0.190432 0.469662 -0.362634 0.860306 -0.342708 0.7668 0.620035 0.370055 0.453683 0.144722 -0.084853 0.597371 -0.936898 -0.306822 0.176529 -0.446294 0.136842 0.153378 -0.717138 -0.158213 -0.34172 -0.937315 -0.544563 -0.555799 0.233762 0.870327 -0.25281 0.451852 -0.0338074 -0.342722 -0.103624 -0.187495 0.209414 -0.40654 0.184776 0.634156 0.943398 0.773504 1.42951 -1.08246 -0.0727505 -0.201444 0.0486049 -0.757249 0.798809 0.469414 0.743366 -0.680756 -0.154763 -0.426374 -0.596005 1.32313 0.43527 0.536593 -0.462299 -0.00541013 -0.0948477 0.448195 1.42718 1.52814 -0.685274 -0.278437 -0.882694 -0.45476 0.726777 0.17417 0.314006 -0.211165 0.208929 -0.0444676 0.277376 -0.452229 -0.493182 -0.405357 -0.669154 -0.998249 0.0528886 0.171728 0.448347 0.246921 0.139737 -1.03674 -0.20628 -0.513617 -0.150578 0.148016 0.648921 -0.284422 1.13374 0.233117 1.15865 1.21949 0.831313 0.69422 0.504648 0.0540448 0.810382 0.138063 -0.612074 -0.0963053 0.209293 0.571948 -0.611032 0.0255445 -0.846919 0.951415 -0.829637 0.941589 -0.51557 1.33643 1.11851 0.847919 -0.528118 -0.277718 -0.0442059 1.04772 0.209877 1.16791 0.749606 0.782014 0.264639 -0.505964 0.993092 1.36217 1.30474 0.595626 0.435057 0.755337 -0.198398 1.01902 -0.333952 0.284377 -0.84161 0.912961 0.465718 0.252493 1.00382 0.202301 -0.118921 -0.739338 0.419238 -0.517785 0.681744 1.31133 1.52947 2.24559 1.61412 1.05 -0.673659 1.02527 0.692378 1.19032 -0.104619 -0.200955 0.204647 -0.375161 -0.166257 0.843525 -0.754455 -0.770887 0.393719 0.197914 -0.388861 0.153397 0.296726 0.730904 0.746794 -0.785943 0.682966 1.13054 0.919138 2.71426 1.75692 2.29428 0.926725 -0.533622 -0.788005 -0.297936 0.842689 -0.0651896 0.196648 1.02694 0.431494 -0.559282 0.393719 -1.09265 -0.449036 -0.197139 -0.0312731 0.421745 -0.176961 -0.160885 -0.2219 1.1287 1.26765 0.713226 0.0479519 1.05127 2.03355 1.86376 0.433243 -0.934344 -1.65435 -1.22737 -0.466318 -0.486992 0.409573 0.22127 0.210979 0.0280115 -0.0105057 -0.06078 -0.238791 -0.268401 0.460983 0.483225 0.988466 0.791682 0.966924 -0.303227 0.370217 -0.646407 -0.418598 0.694883 1.35693 2.15041 0.278116 -0.379698 -0.904539 -2.4696 -2.23435 -1.19465 -1.86991 -0.278877 -0.266776 -0.0727817 -0.630983 0.38836 0.00735195 -0.169746 -0.951237 -0.0740116 0.713281 -0.299962 0.939905 0.697324 0.299314 0.862299 0.221555 -0.404863 1.42589 0.10098 0.795637 1.10605 -0.718824 -1.50896 -1.66747 -2.38103 -1.7452 -0.440765 -1.51128 -0.342135 0.511149 0.000805358 -0.193672 1.45782 0.843196 1.09159 -0.782718 -0.427022 -0.492792 0.0680715 0.691733 0.461352 -0.800985 0.459183 -0.23097 -0.749746 0.247157 -0.419075 -0.0601252 0.157098 -1.46495 -1.45618 -1.69744 -1.08062 -0.794519 -1.06832 -0.25377 0.36664 0.471501 -0.569122 1.0506 0.0924902 -0.459154 -0.438111 0.640587 -0.727514 -0.354443 0.51605 0.544786 0.938108 0.668258 0.535715 -0.167005 0.486055 0.32437 0.70875 -1.21556 -0.213204 -0.527231 -1.66726 -0.165548 -0.225624 0.311772 0.0895106 -0.354545 0.331517 -0.684239 -0.309663 -0.0715466 0.885822 0.128034 0.54882 -0.166437 -1.10831 -0.948448 -0.945511 0.770989 -0.353252 0.0998351 -0.470515 0.315385 -0.481882 0.186061 0.241918 -0.440573 -0.616977 -1.76667 -1.01057 0.329156 -0.328735 -0.355037 -0.207313 -0.386125 -0.397739 0.412645 0.140234 -0.325976 0.0295742 0.882042 0.248643 0.371563 -0.965319 0.0553429 -0.905314 -0.922178 0.127963 0.0839917 0.163073 0.857686 0.938732 -0.310335 -0.0409225 -0.942594 0.119316 -0.478669 -0.621626 -0.980078 -0.419852 0.451348 -0.382988 -0.0810172 0.477789 -0.241606 0.356343 0.545233 0.17918 0.36238 -0.302765 1.49437 0.113619 -0.231182 -0.0234768 0.436384 0.209811 -0.163422 0.0853874 -0.333821 -0.420472 -0.88277 -0.543997 -0.320443 -1.35751 -1.13034 -2.14006 -0.166021 -0.854551 -0.0454425 -0.43536 -0.837139 0.731921 -0.080844 -0.877066 -0.124437 -0.198496 0.191516 0.382263 -0.505939 0.770205 -0.915011 0.0375194 -0.290262 -0.127385 0.693445 -0.306353 0.00447802 -0.390261 0.329855 -0.515606 -0.377428 -2.38917 -0.85274 -0.301416 -1.15418 0.712673 0.236292 0.526401 -0.164441 -0.839128 0.345164 -0.120463 0.387632 -0.0832881 0.899041 -0.428826 -0.254131 0.547602 -0.808316 -0.466023 0.520249 0.396377 -0.729159 0.102112 -0.187599 -0.395292 -0.804788 0.188777 -0.774593 -1.61622 -1.31274 0.440435 -0.169238 0.305345 -0.350545 -0.0976565 1.16781 0.525857 -0.347152 -0.432101 0.734428 -0.362787 0.345407 0.851614 -0.797487 0.724674 0.345041 -0.413249 0.792047 -0.516235 -0.86095 -0.0503116 0.976872 -0.670761 -0.584964 -0.01966 -1.56158 -0.294183 -0.944608 1.06404 -0.201618 1.06218 0.483619 -0.23691 0.657765 0.184696 0.215854 -0.632526 -0.605276 0.302313 -0.271252 -0.984445 0.681879 -0.562953 1.02419 -0.200527 0.407025 0.0431869 0.932692 -0.944884 0.763874 -0.973142 0.25898 -0.370968 0.585315 0.832826 0.391337 -0.817295 -0.215117 0.882246 -0.259077 -0.932038 -0.372907 0.516025 0.075225 -0.100671 0.337379 -0.800089 0.495103 -0.580576 -0.966762 -0.22904 0.256262 -0.115068 -0.588244 -0.682852 -0.258583 0.245766 -0.193648 -0.312983 0.00149503 -0.754552 -0.216015 -0.150508 0.0693845 -0.947478 0.260598 -0.130039 0.328585 -0.879595 -0.835872 0.010956 0.822871 0.466292 -0.108676 -0.228065 0.998901 -0.288737 0.412275 0.743095 0.580248 -0.815851 0.212683 
0.0463576 0.466475 0.40672 -0.907105 0.18977 0.414486 -0.742098 0.879862 0.128764 -0.929719 0.199368 0.20356 -0.575629 0.886193 -0.319817 -0.867706 0.115063 -0.523189 0.352038 0.188146 0.438505 0.0705512 0.0841814 0.313833 0.829712 0.38023 -0.696036 0.19657 0.35844 0.860478 0.873376 -0.138524 0.182162 -0.587137 -0.128641 0.599583 -0.080623 -0.419924 -0.603741 0.320763 -0.180827 -0.511922 0.612732 0.74253 0.240495 -0.15036 0.79415 0.0578071 -0.191656 -0.0932263 -0.658826 -0.169547 -0.425729 -0.582672 0.252928 0.21482 0.065096 -0.609632 -0.411511 -0.376314 -0.934681 0.864786 0.602097 0.449601 -0.537818 -0.00817855 -0.154319 -1.06821 -0.290693 1.13144 1.45283 0.659644 -0.451404 0.513185 -0.290681 0.572317 -0.0972338 1.09485 -0.523691 -0.921921 -0.929813 -0.85772 -0.940738 -0.631332 0.0572832 -0.192068 1.04338 0.639317 0.210337 -0.979406 -0.259434 0.314939 1.02732 0.999847 -0.102378 0.0029685 1.38342 -0.214782 -0.112874 0.641873 -0.246692 0.432964 -0.0709337 0.149782 0.73712 0.315974 0.318402 -0.0176289 0.318805 0.207471 -0.745449 -0.468779 0.485885 -0.683584 -0.663038 0.880007 -0.240571 0.893008 -0.630385 0.358799 -0.62626 0.398264 0.334754 -0.140776 -0.597961 0.703022 0.234831 1.01339 0.722079 1.08694 0.36624 -0.37981 0.375836 0.98047 0.122895 -0.659602 0.531231 0.107098 0.180536 0.0497915 0.414533 0.455031 1.09337 0.532174 0.386285 -0.643319 -0.236599 -0.946287 0.0303587 0.329585 -1.18601 0.232007 0.166988 -0.383265 -0.416225 0.0539422 0.507359 1.07425 1.47021 0.214805 0.44627 -0.436633 0.303937 0.227485 -0.932893 0.209861 0.469972 0.0549001 0.633106 -0.707939 -0.54013 -0.125503 -0.0169818 0.856647 -0.113507 -0.697836 0.142776 0.51101 -0.304877 -0.485577 0.907779 -0.172525 0.889588 -0.201295 0.021281 0.0804874 1.48808 0.10266 0.148138 -0.239577 -0.695908 -0.100206 -0.0892759 -0.0947089 0.777403 0.817621 0.318278 0.298879 0.0929625 -0.278238 0.688304 -0.265096 0.343763 -0.0635502 -1.23503 -1.07256 0.230377 -0.351431 0.164349 1.1529 -0.580784 0.40148 1.00846 0.824083 0.942061 -0.0198959 1.15859 -0.0839035 0.572355 -1.09047 0.00175856 -0.924216 0.138824 -0.381573 -0.770135 0.419973 0.61796 0.162461 -0.0336239 0.115121 -0.010999 -0.143017 -0.712235 -0.273392 -0.374093 0.378953 0.614263 -0.702609 0.164343 0.481641 -0.302683 0.843631 1.36233 0.719312 -0.195681 -0.663633 -0.453591 0.132708 -0.709807 -0.690572 0.986609 -0.47335 0.129368 0.65166 -0.747599 0.188587 -0.228362 -0.0938497 0.147964 0.408874 -0.579775 -0.146114 -0.484621 -0.0369134 0.0416502 0.344839 0.0751369 0.288213 0.498311 0.655274 1.31212 0.541862 -0.403374 -0.750769 0.8301 0.0257274 0.095924 0.692747 1.04625 0.451384 -0.891232 -0.245871 -0.273841 -0.573412 0.315154 0.813961 0.61786 -0.673049 0.225356 -1.30153 -0.587762 -0.0192853 -0.193835 0.087741 0.616963 -0.991036 -0.768278 1.41908 -0.797406 0.12968 0.889411 -0.295721 -0.0688236 0.484703 -0.0623376 1.08751 -0.960042 0.265297 0.517441 0.148987 0.884086 0.874525 0.942733 0.376576 0.539283 -0.37086 0.0563859 -1.57852 -0.661017 -0.122604 0.968763 -0.272422 -0.655932 0.0133307 0.458555 -0.425385 -0.0804841 0.53449 -0.338784 0.205267 -0.0494725 1.03956 -0.698679 0.904013 -0.651507 0.819819 0.173132 -0.726769 1.04406 0.274158 0.0460354 0.420113 1.16279 -0.59669 -0.86112 -0.764357 -0.569765 -0.358589 -0.0561505 0.0809486 -0.493353 0.451943 -0.762153 0.714551 1.06629 -0.283294 0.566533 -0.0887044 0.342267 0.726641 -0.668017 0.0310869 -0.794635 -0.137589 -0.452986 -0.519868 -0.484166 -0.607039 -0.806377 0.910677 1.26019 0.441866 0.346592 -0.211614 -0.729785 0.119727 0.776689 0.00996224 0.843779 -0.173953 0.685131 0.826927 0.837916 -0.338008 1.2204 0.452391 -0.0352748 0.721754 1.02748 -0.496084 0.051901 0.00479141 0.608209 0.5951 -0.436359 -0.812678 0.462761 -0.0155037 1.3113 -0.285814 -0.632533 0.199123 0.940425 1.20217 1.23455 1.34365 -0.0244576 1.10415 0.631279 1.33535 0.427258 1.09928 1.08991 -0.2248 0.557462 0.711736 1.16095 -0.4233 -0.353996 -0.758665 0.0230306 -0.376056 -0.300911 0.689495 0.540121 0.172315 1.05261 -0.736775 -1.23015 0.0372837 0.808884 3.0157 2.27357 1.513 0.424322 1.56801 1.61414 0.863085 1.85177 0.612819 -0.51595 0.543357 0.470006 1.60887 0.202664 0.756486 -0.767999 0.441304 0.362471 0.163012 0.166709 0.113845 0.040298 1.07662 0.905735 -0.0756797 0.0600521 -1.38122 0.646512 1.78405 1.47023 0.877346 1.27778 0.332223 0.548698 1.10303 1.16269 0.299888 0.0643498 0.278255 0.17577 -0.0949465 0.805141 -0.803515 0.834906 0.311139 -0.964477 0.346279 -0.216067 -0.462397 -0.0811879 -0.875961 0.662461 0.125945 -0.765825 -0.686875 -1.85774 -1.03881 0.929724 -0.499313 0.136221 -0.140267 0.453487 -0.205945 0.747727 0.0754679 0.674196 -1.16664 -0.861739 0.520479 0.573975 1.02882 0.703145 -0.834946 0.750091 0.318498 1.02325 0.620545 -0.914812 -0.0364347 -0.896648 -1.67505 -2.0498 -2.83651 -1.0226 -1.29168 -0.0988509 -0.768485 -1.32935 0.573778 1.03066 0.1664 1.68968 -0.243288 0.312101 0.647911 -0.104186 0.656413 0.324337 0.468641 0.579784 0.0320139 -0.144261 -0.457566 -0.702598 0.379091 -0.583312 0.962618 -0.555938 -0.698106 -1.4686 -2.77756 -1.95759 -1.22908 -0.136673 -0.864108 -1.58309 -0.410462 0.53265 1.21022 1.42479 1.49412 -0.364508 0.141785 0.781316 -0.13142 -0.334266 0.577953 0.907541 0.492843 0.630848 -0.800616 -0.586257 0.0657237 0.14233 0.0139935 -0.150012 -0.606751 -0.104516 -1.50842 -1.83659 -1.38312 0.0615545 -0.497816 -0.696377 -0.470812 -0.319759 -0.223447 0.354654 -0.0890148 -0.0324863 0.670615 0.520978 0.0829611 0.102985 -0.32964 0.46991 -0.310953 -0.000308693 0.528962 -0.31921 0.150603 0.306735 0.343812 -0.120361 -1.1006 -0.644901 -1.37013 -2.40112 -1.08449 -1.10108 -1.30585 -0.588842 -1.00063 0.284935 -0.564745 0.781044 0.464596 0.666877 0.9929 1.29188 1.1877 1.47501 0.219821 -0.444452 -0.0511795 0.407328 -0.991564 0.585012 -0.138453 0.763346 -0.712048 -0.767468 -0.104273 -1.24881 -1.61753 -0.714213 -1.57392 -0.43236 -1.35774 -0.883571 -0.0992744 -1.09216 -0.474629 0.534869 -0.0781027 -0.495233 -0.0530057 1.0056 0.152315 1.44383 0.86844 -0.738438 -0.537828 -0.463726 -0.334999 -0.022851 -0.462134 0.597499 -1.03314 0.129348 -1.28851 -0.431523 -1.51151 -1.06002 -1.54594 -0.856704 -0.672156 -0.537635 -0.771256 -0.759962 -0.922625 0.549758 -0.455308 -0.560212 -0.284649 0.965184 0.673196 0.848287 0.340043 -0.55525 -0.555223 0.579276 -0.668846 0.810559 0.515109 -0.40035 -0.718975 -0.858711 -0.201886 -0.555163 -2.03649 -0.672726 -0.315047 0.100385 0.0178078 -0.311912 -0.993754 -0.903146 -0.802111 -0.418887 -1.24666 -0.0930427 -0.691527 0.775614 -0.521959 1.24804 0.647945 0.22384 0.22776 -0.29563 -0.849488 0.881356 0.150135 0.515038 0.895338 -0.921407 -0.668396 0.288396 -0.0392282 -0.267718 -0.0580008 0.359206 0.159418 -0.308501 -0.203187 -1.28098 -0.649827 -0.823755 0.403632 0.476626 -0.264609 -0.873938 -0.750923 -0.189271 -0.656794 -0.643717 -0.289651 0.455184 -0.255202 -0.589203 0.398636 0.479306 0.838279 -0.157694 0.347468 0.798139 -0.865478 -0.898162 0.00956152 0.621451 -0.205369 0.248058 -0.166402 0.595857 0.226056 0.991627 0.039966 0.14425 0.399395 -0.172583 -0.719187 0.637671 -0.431884 0.823245 0.613575 -0.262246 0.167638 0.606555 -0.30265 -0.560514 -0.416662 -0.873415 -0.529068 -0.760931 0.563677 0.529301 -0.947813 0.653845 0.0204964 -0.612579 0.0172069 -0.390955 0.352397 0.615589 0.120212 0.382794 -0.708557 0.4252 -0.34373 0.43083 0.522813 0.542161 -0.0276193 
-0.90521 0.854549 -0.90466 0.108744 -0.0262812 0.326123 0.423425 0.587253 -0.239926 0.962571 -0.828558 0.512253 -0.614103 0.610908 0.88081 0.791927 0.207518 -0.428697 0.539689 -0.0287076 -0.820038 0.377678 -0.730658 -0.718375 -0.313456 0.543687 0.56444 -0.69689 -0.0472121 0.60088 0.280613 -0.887528 -0.230074 -0.860955 -0.185011 0.0428569 -0.637656 -0.70615 0.726018 -0.646865 -0.564087 0.61923 -0.0217354 0.84659 -0.524318 0.0202097 0.543656 -0.314689 0.354607 0.337068 -0.118876 0.530734 -0.186926 0.809957 -0.0743331 0.885024 0.528611 0.596272 0.0886167 -0.494222 -0.129451 0.261216 -0.316042 0.478931 0.547393 0.133011 0.0576343 -0.205895 0.306026 -0.426322 0.945007 -0.0222738 0.490183 -0.585304 0.902409 0.645321 1.4981 0.941455 0.78271 0.79422 -0.492004 0.303227 -0.797101 0.631248 -0.915769 -0.590244 -0.223185 -0.275841 0.970655 0.0116834 0.55214 -0.522534 0.284391 1.6579 0.484923 1.10938 1.03654 -0.182507 -0.369626 1.02447 1.10005 0.553155 0.823435 0.907749 1.51965 1.28192 0.448265 -0.0209755 0.115506 0.369508 -0.742086 0.749124 -0.783197 -0.119384 0.932715 -0.671818 -0.616332 0.472049 -0.498911 0.201714 0.978128 0.897369 1.24474 -0.666167 -0.1649 0.52689 0.644644 -0.226356 0.652892 0.572731 0.0805704 1.43329 1.20544 1.24238 0.413884 -0.365806 -0.36816 -0.861964 1.01372 -0.807612 -0.129185 -0.222633 -0.599589 -0.575592 -0.534016 0.0216677 -0.500386 0.760213 -0.93293 0.311377 -0.374138 -0.957168 0.763497 0.692823 0.140437 0.925221 -0.647881 0.77989 1.53047 0.259393 -0.111797 -0.798082 0.578075 -1.22481 -1.15676 0.431979 0.617173 0.73943 -0.239235 -0.642692 -0.073404 0.341352 -0.195934 0.151504 -0.0714415 -0.0910404 0.230103 0.238266 -0.205258 0.333507 0.280472 -0.0375718 0.539483 -0.00720112 0.636297 0.428395 -0.558861 0.841074 -0.216457 -0.5103 -0.237964 0.567265 0.0796996 0.242025 -0.494808 0.267312 0.891476 -0.429004 0.146834 -0.524461 -0.558455 0.717449 0.304983 -0.0902862 0.192016 -0.409355 -0.864634 -1.41615 -0.686122 0.354742 -0.626585 0.841907 -0.636721 -0.953849 0.632316 0.493144 0.947546 -0.65787 -0.389819 -0.242877 -0.0456368 0.823235 0.636504 -0.00772118 0.863399 -0.253267 0.204358 -0.610813 -0.085298 0.0232029 1.00824 0.265105 0.622677 -0.131788 0.167428 0.0967316 -0.980131 0.870234 -0.154322 0.274685 -0.917198 -0.000637966 -0.261427 0.129778 0.716154 -0.509256 -0.439367 0.182052 0.0463901 0.177063 0.699802 0.792495 0.65099 -0.753555 -0.891063 0.0902562 0.70687 -0.486009 -0.0907471 0.483056 -0.191079 -0.592075 -0.70724 -1.53103 0.365439 -0.814096 0.321779 -0.283311 0.480232 -0.360148 0.213219 -0.573255 0.11482 0.363229 -0.627228 -0.106757 0.748924 -0.867458 -0.511471 -0.873527 -0.459456 -0.88816 -0.101448 0.661665 0.848933 -0.168396 -0.247464 -0.0285862 -0.121585 0.633214 -0.789734 -0.421148 -0.187289 0.206898 0.812365 0.632135 -0.277807 -0.2194 1.13316 0.165512 1.04967 -0.156444 -0.411934 -0.270585 0.948127 0.358043 -0.645661 0.037141 -0.0836512 0.631152 -0.699078 0.0970179 0.849641 1.08048 -0.0494457 0.250193 -0.165627 0.037102 -0.099894 0.311258 -0.101866 0.569868 0.679386 -0.174646 -1.04421 -0.101551 -0.2126 0.170987 0.604703 0.643137 0.233056 0.754685 0.364506 -0.140735 0.564795 -0.378765 -0.418439 -0.780039 0.699108 -0.638378 1.09183 -0.260648 0.607271 0.320918 0.33496 0.749103 -1.06729 0.595072 -0.775302 -0.725871 -0.0388815 -0.386281 -0.668825 -0.65878 -0.455879 -1.03987 0.345443 0.504248 -0.457069 0.814107 1.48955 0.789861 -0.470103 -0.5739 0.302286 -0.699353 0.0847764 0.682374 -0.239583 1.07145 0.281562 0.920397 0.401691 0.237197 -0.368081 -0.106158 -0.924377 0.29598 -1.1594 -0.099003 -1.66429 -0.347779 0.558033 -0.730619 0.391783 0.137766 0.79663 1.84293 0.498634 1.28 -0.206458 0.22129 0.26072 -0.150864 1.29256 1.77132 1.28575 1.67719 1.64851 0.537323 -0.83568 -1.0847 -0.162236 0.100183 -0.5104 -0.608632 -1.7685 -0.270871 -0.782961 0.0553156 0.592218 -0.0773137 0.646327 -0.677186 -0.129232 0.312515 1.09296 -0.13734 -0.873677 -0.43693 -0.892204 -0.0299091 1.88613 2.30322 2.45363 0.834938 0.574226 -0.336366 0.261175 -0.275477 -0.454067 -0.265289 0.394253 -0.888109 -0.187044 -0.583659 -0.505111 -0.847759 -0.0184814 0.663952 0.909338 -0.684008 0.0498838 1.09821 -0.13426 -0.0349643 0.842168 0.598988 -0.700831 -0.459609 0.380787 1.06045 1.88277 -0.0133319 -1.12825 -1.3382 -0.498273 -1.58869 -1.99874 -0.647204 0.450673 0.562267 -0.743463 -0.407482 -0.0689459 0.854144 0.437564 0.0505594 0.0946767 0.216273 0.158862 0.854189 1.1233 0.514457 0.511264 0.547803 0.400714 -0.831614 -0.292404 0.2792 0.593132 0.105014 -0.701385 -0.0340555 -0.495413 0.460385 -0.422785 -0.818655 -0.714741 -0.765216 -0.347791 0.249378 -1.18169 -0.936053 1.19899 -0.175569 0.0546749 -0.553979 0.570968 0.665325 -0.694813 -0.372001 0.449979 0.293069 0.0684487 0.119828 0.398123 0.105289 -0.068532 -0.483087 0.406844 0.0154699 0.838947 -0.505174 -0.830609 -0.248258 -0.80766 -0.658817 -0.924916 -0.493861 0.600025 0.126495 1.03595 0.609926 0.678612 -0.528793 -0.1206 0.873972 0.215838 -0.778954 0.57259 -0.472274 0.35435 -0.230576 0.575217 0.293544 0.114972 0.0212962 0.0702026 0.148987 0.625422 0.871288 -0.183213 -0.00585526 -0.286663 0.494966 -0.458817 0.371626 0.463608 0.352779 0.148276 0.823269 -0.494112 0.848509 -0.54509 -0.893299 -0.0967143 -0.710212 -0.850244 0.88641 -0.934324 0.659975 -0.301407 0.799033 -0.158828 0.85953 0.0579976 -0.254141 -0.702661 0.36997 -0.507486 0.0859124 0.567179 0.741535 0.364384 -0.531903 -0.54689 -0.187052 -0.374303 0.892572 0.858649 0.595863 0.0886239 0.10609 0.594718 0.445514 0.808954 -0.496445 0.836056 -0.473464 0.388056 -0.468503 -0.316496 -0.196646 0.292949 0.533302 0.806968 -0.437091 0.60634 -0.158972 -0.838966 -0.840219 0.0806606 -0.358696 -0.29758 0.612447 0.751061 0.287481 -0.359561 0.691507 -0.451502 -0.731067 0.732893 -0.171682 -0.661179 -0.564318 -0.387618 -0.60819 0.082317 -0.152404 -0.158151 -0.165359 -0.252341 0.830155 0.218399 1.0487 0.801902 0.626724 0.674216 -0.535061 0.411916 0.686712 -0.31866 1.30453 1.26591 0.0670354 1.20445 -0.116123 0.954338 -0.311204 -1.04334 0.645574 0.214464 -0.61681 -0.736932 -0.0808561 -0.378279 -0.56548 -0.157038 0.465903 -0.535827 0.360954 1.55099 1.75618 0.496026 0.944159 0.39192 -0.17958 0.560604 -0.0735832 1.67096 0.926001 1.5665 0.194987 0.000993694 0.859033 0.331412 0.284208 -0.813409 0.343516 0.579426 -0.848689 -0.136144 -0.926075 -0.133203 -0.338853 -0.301448 0.527782 1.20614 0.0167918 0.778572 1.24717 1.07635 0.759499 0.981231 -0.0482818 0.40019 0.949279 0.535132 0.84079 0.634556 0.0603137 0.432288 1.04807 0.753551 0.714449 -0.727402 -0.56429 0.253331 -0.713309 0.59413 -0.267693 0.138136 0.249951 0.435367 0.818435 0.509689 -0.159903 -0.185535 -0.206073 0.444295 -0.38623 0.00755665 0.13307 0.642431 0.489495 0.500929 0.552186 0.390253 0.746128 -0.599532 -0.51322 0.644961 0.30514 0.227033 -0.952027 -0.056069 -0.673147 0.799816 -0.833907 -0.108928 -0.728394 -0.862202 -0.680131 0.279862 -0.43995 0.913615 0.490147 0.84349 -0.498272 0.551336 0.583833 0.678433 -0.0922227 -0.745661 0.0402862 0.256275 -0.248467 -0.455699 -0.528278 0.364623 0.657147 0.245736 0.865412 -0.275517 -0.898984 -0.217444 0.276772 -0.748589 -0.264019 0.716037 -0.504624 -0.0788523 -0.456257 -0.581155 0.471742 -0.269884 0.0802942 -0.493881 0.159404 -0.726326 -0.0405583 0.965087 0.472152 0.389752 0.288064 -0.263527 0.672153 0.897717 -0.483505 -0.404645 -0.940489 0.0444655 0.518845 
-0.8764 -0.721 -0.25779 0.0480056 -0.40382 -0.0839511 0.0322158 -0.382506 0.580538 0.918013 0.0321127 -0.131123 -0.911689 -0.554254 0.742964 -0.501793 -0.918878 0.677287 0.950816 0.771651 -0.980681 -0.131269 0.428324 0.76574 0.679556 0.245155 0.372112 0.284768 0.372173 -0.484519 0.222346 -0.380954 0.0243682 0.341843 -0.676911 -0.890314 -0.392982 0.355784 -0.603964 -0.0184998 -0.113789 -0.449833 0.376511 0.254872 0.647982 -0.947432 -0.90273 0.876271 0.914121 0.736996 -0.221787 0.20853 0.231522 0.644142 -0.235858 0.976309 -0.462996 0.736737 -0.86786 -0.787821 0.956604 0.170853 -0.683624 0.464105 -0.809799 0.0468106 0.146809 1.0661 -0.728353 -0.706128 0.503991 -0.487336 0.217605 -0.543485 -0.0666269 1.41746 0.275282 -0.394227 0.205873 0.316469 -0.275651 0.804815 0.492807 0.920793 -0.799554 -0.509101 0.95112 0.0234371 0.0704668 0.0765413 0.0488446 -0.421536 -0.542086 -0.826449 0.292852 0.145211 -0.562903 -0.485054 0.0379051 0.859013 0.567142 0.478117 1.42612 1.16019 0.694051 -0.262736 -0.958299 0.327306 0.242327 -0.164921 0.931613 0.320904 -0.0824305 -0.335991 0.34786 0.0546915 -0.159192 -0.00832583 -0.0311054 -0.158466 -0.733655 -0.372418 -1.02416 -0.755985 0.597648 -0.721576 0.410655 1.5209 0.873957 0.524328 0.800187 0.285995 -0.699123 -1.00194 0.0854354 -0.440233 -0.669729 0.504595 0.811624 0.0307598 -0.412152 -0.882872 -0.146054 -0.740246 0.192809 -0.727379 0.472049 -0.256343 -0.0382736 0.00427131 0.24289 -0.233949 -1.37618 -1.04629 0.51723 1.20986 0.291696 0.831689 -0.0903059 -0.208933 0.138817 -1.75763 -1.00977 -0.637324 -0.312776 0.363364 -0.667406 0.477367 0.487228 -0.621571 -1.05258 0.57395 -1.10019 0.236294 0.272333 -1.09194 -0.00667348 -0.129499 0.183542 -0.691985 0.451518 -0.379751 -0.101551 0.664176 0.972214 0.737067 0.340069 0.135241 -1.25123 -0.111202 -0.243042 -0.147281 0.37077 -0.486588 0.648887 -0.891903 0.647816 0.224277 0.0111617 0.350338 0.457902 -1.60973 0.364403 -0.145762 -0.715541 -0.369454 -0.281865 0.422865 -1.20095 -0.222834 0.62085 0.410471 0.981151 -0.0673781 0.489277 -0.169247 -1.32332 -0.241227 -0.950443 -0.00339195 -0.103305 0.379042 0.100558 -0.153783 -0.72747 0.15867 0.0382376 0.18805 -0.426683 0.286513 -0.867156 0.666521 0.823853 0.515502 -0.709563 -1.00329 -0.288085 -0.500437 0.369217 1.19856 0.0961859 0.211971 -0.509286 -0.922006 -0.0246384 -0.387903 0.52186 -0.479769 0.508299 0.483307 0.47962 0.982532 0.873043 0.747062 -0.406688 -0.151329 -0.862409 -0.106878 0.486727 -0.418455 -0.595651 -0.15957 0.455724 -0.382769 -0.429032 0.598822 -0.108627 0.665965 -0.0773084 -0.724147 -0.89372 0.0318651 -0.7162 -1.10796 -0.574856 0.178304 0.706026 -0.137214 1.03449 0.754779 -0.18363 -0.207849 -0.22031 -1.23404 0.945071 -0.284126 0.555158 0.190552 -0.70001 0.515916 0.298059 -1.23138 -0.555947 0.594031 0.560117 0.525316 0.30179 -0.178497 -0.785842 0.0605694 0.0765749 -0.00209424 0.807874 -0.405968 0.526017 0.562265 -0.204823 -0.311747 -0.0287179 -0.848629 -0.139394 0.0103141 -1.02254 -0.103028 0.638594 -0.33617 -0.565866 0.162079 0.965468 -0.164993 -0.161032 0.129761 0.588643 0.466675 -0.0123523 -0.234921 0.624784 0.14534 -0.862403 -0.192518 -0.153412 -0.778838 -0.502242 -0.0619977 0.286691 0.0911588 -0.862056 0.0981319 -0.706615 0.319929 0.120972 0.252476 -0.25968 -0.22844 0.810643 0.32265 -0.380764 -0.826918 -0.665521 0.612299 -0.0720433 0.901747 0.0147136 0.179302 -0.27099 -0.223525 -0.750576 -0.400823 -1.12487 -0.850186 0.551138 0.794368 -0.327764 0.112657 0.951476 0.409306 -0.913062 -0.505372 -0.155645 -0.351721 -0.125752 0.957284 0.0917731 -0.997889 -0.961482 0.0741156 0.873753 -0.183163 0.557193 -0.281242 0.0231326 -0.696265 -0.262785 -0.807158 -0.602809 -0.227775 0.403274 0.518505 -0.155586 -0.0354308 -0.705537 -0.698538 -0.0552427 -0.0683341 0.456158 -0.519792 -0.280335 -1.08731 0.310202 -0.174792 0.132883 -0.11347 0.0524233 -0.844041 0.454635 0.211424 0.359033 0.499291 -0.855801 -0.880589 -0.905116 0.716953 -0.0242706 -0.0224884 0.150138 0.76803 0.24108 0.920332 -0.239663 0.213325 0.470258 0.674569 -0.450422 0.190112 -1.28697 -1.12952 -0.912203 0.538666 -0.247413 -0.338772 -0.225417 -1.45516 -0.0955886 0.00981478 -0.33212 0.294688 0.483293 -0.634588 -0.260878 0.121651 1.00693 0.58123 -0.46161 1.08643 1.21762 1.68012 -0.56183 -0.491238 -0.870636 0.0303212 -0.557328 0.642453 0.312495 0.130612 -0.571035 -0.0574014 0.212364 -0.786653 -0.534729 0.15995 -0.56657 0.186514 -0.306004 0.0519353 0.325412 -0.657738 0.193593 -0.0861141 0.351116 1.5416 1.66974 0.805112 2.27601 1.52747 -0.500677 0.98753 -0.617368 -0.225413 1.00319 -0.0655435 0.17048 -0.627577 0.526026 0.526105 -0.550005 0.579219 -0.96456 0.0471833 -0.113674 -0.158623 0.97049 -0.778544 0.405353 0.53582 0.878927 1.05723 1.93861 0.800168 1.46269 1.87214 2.03658 0.716803 0.154467 -0.0284743 0.298328 0.815803 0.446395 -0.480842 -0.344129 0.376319 -0.329962 -0.132744 -0.148603 -0.301094 0.0422958 -0.389982 0.0499687 0.725502 0.233492 -0.0248984 0.416201 0.117849 0.243886 0.877946 1.61588 1.43758 1.85153 1.65484 1.81016 1.10988 0.84651 -0.49968 -0.408612 0.394896 0.39737 0.519425 -0.577658 -1.20071 0.619857 -0.0185326 0.586503 0.358305 -0.288506 0.31715 -0.43812 0.607162 -0.120844 0.493772 -0.750185 1.01464 2.17981 2.80402 1.71788 1.8951 0.1676 0.689685 1.96052 0.127224 0.726706 -0.241188 -0.907895 -0.925399 0.183984 -1.22211 0.885792 -0.040851 0.0106839 0.834177 -0.439667 -0.256364 0.248588 -0.516014 -0.128184 0.580604 -0.724675 -0.587311 -0.0851079 1.43259 0.507737 1.8884 0.743513 1.4746 1.55014 1.12868 0.538388 1.06935 0.464253 -0.816889 -0.784214 -0.5781 0.0771124 0.685467 0.0178357 -0.378226 -0.0922608 0.64074 0.548814 -0.59176 -0.11699 -0.856968 -0.122177 0.219882 0.742027 0.530559 0.819602 1.60439 2.08269 1.96645 1.36542 1.05154 1.33394 1.09937 0.819187 -0.573677 -0.265563 0.678823 0.0499243 -0.334449 -0.599136 0.483262 0.647229 0.459546 0.0426785 -0.0801881 0.300851 -0.260468 -0.707306 -0.382876 0.295364 -0.361337 -0.424473 0.498538 0.66755 1.69147 2.4608 1.62293 1.47342 0.680682 1.3553 -0.26451 1.12809 -0.564407 -0.365615 -0.609607 -0.212337 -0.69958 0.233479 0.401193 -0.451147 0.138186 0.292043 0.862939 0.0285291 0.19106 -1.43401 -0.0815326 -1.36967 0.0218823 -0.176132 -0.13564 0.313119 1.34838 2.60769 1.61841 1.6845 0.892176 0.267772 1.38708 0.441579 0.502301 0.0112083 -0.541185 0.2224 -0.597701 -0.0275985 -0.707504 0.996871 -0.126657 0.39914 0.247625 0.17622 0.157902 -1.97774 -0.979678 -0.121184 -0.851838 0.20316 0.145563 2.13517 0.997229 1.22263 0.15287 -0.101858 0.821251 1.12571 1.10097 0.0750841 -0.263573 0.901389 0.204749 -0.070286 -0.438851 0.113055 0.134784 0.442663 0.86536 -0.258321 0.954465 -0.203775 -0.135995 0.34899 0.328822 -0.478694 -0.519785 -0.136522 0.323045 0.882381 0.0840151 0.642368 0.189438 0.733921 -0.0791946 0.971872 0.603577 0.177652 0.958918 0.517171 -0.824824 0.883472 -0.976911 0.80403 -0.125469 -0.68379 -0.0322935 0.355248 -0.192526 0.576165 -0.251426 -0.836017 -0.902901 0.461044 0.922896 0.935548 0.499736 0.924683 0.489783 0.476932 0.607074 0.134755 -0.524864 0.996125 0.226568 -0.887491 0.164981 0.652832 0.491073 -0.836177 -0.755364 -0.284402 0.145612 0.523272 0.281989 0.224373 -0.0412662 0.744365 1.00017 0.113853 -0.219092 0.681875 -0.680113 -0.784181 -0.426863 0.922239 0.971231 -0.516099 0.12186 0.214331 -0.684698 0.684133 -0.86108 -0.639088 -0.870113 -0.0650349 -0.0672323 
-0.546556 -0.909421 0.357646 0.6917 0.2711 -0.185412 -0.84359 -0.570119 -0.356328 -0.967125 0.556023 0.749205 -0.340419 0.317466 -0.457789 -0.79574 0.310507 -0.94359 0.341011 -0.173375 0.799746 0.305702 -0.673147 0.282083 0.822627 -0.24485 -0.022248 -0.798456 -0.0013123 0.77001 0.255099 -0.477212 0.220673 0.829135 -0.564301 0.806603 0.402737 -0.0588604 -0.680317 0.240822 -0.697296 0.837561 -0.322667 0.824966 0.555871 0.825671 0.735651 0.209212 -0.805651 0.175574 -0.609479 -0.0941476 0.726062 -0.2824 0.683922 0.794657 -0.262856 -0.820637 0.514163 0.592347 -0.790227 -0.55554 0.472296 0.367347 -0.201424 -0.762618 -0.162586 -1.16506 -0.467709 -0.388117 -0.103101 -1.21208 0.186939 -1.48736 -0.305509 -1.28061 -1.21024 0.0343674 -0.459207 0.548039 -0.722825 -0.238446 -0.162569 -0.0603654 0.270608 0.756034 -0.719406 0.849606 0.18541 0.742074 -1.14883 -1.28045 0.440072 -0.886502 -0.527868 -1.31918 -0.334063 -1.44557 -1.34594 -0.45961 -1.00563 -0.282561 -1.46812 -0.961345 0.203014 0.43684 -0.802014 -0.698161 0.348216 -0.915523 -0.762759 0.971335 0.373638 0.662314 -0.468041 0.687146 0.260487 -0.15968 0.370729 0.105942 0.4491 -0.53472 -0.890663 -0.273843 0.351011 -0.632086 -0.543032 -1.19845 -1.14306 -1.17885 -0.764662 -0.174567 -0.410195 -0.53822 -0.0664927 -0.786303 0.318627 -0.898595 0.459475 0.719173 -0.27488 0.349811 0.158342 -0.533802 0.232421 -0.633384 -1.25041 0.277559 -0.0432948 -0.240192 -0.969202 -0.131086 -0.827717 0.445841 0.397726 -1.02445 0.332139 -0.60109 -0.173693 -0.381937 -0.531322 -0.426697 -0.373376 1.1132 0.292561 -0.0658631 0.534507 0.202358 -0.450911 0.469189 -0.28351 -0.952692 0.0161737 0.18416 -1.18781 -0.325183 -0.845612 0.10134 -1.06396 -0.552921 -0.824826 -0.290996 0.329335 0.792961 -0.888922 0.338088 -0.191573 -0.197035 0.0770764 0.104056 -0.0440648 0.511995 0.310086 -0.286751 0.9056 -0.894772 0.854244 0.775197 -0.73112 -0.0192774 -0.961019 -0.230933 0.132592 0.669892 1.04025 -0.634786 -0.684298 0.535886 -0.409694 0.964865 0.665202 -0.423271 -0.482367 -0.338291 -0.614257 0.138195 -0.835057 0.167944 0.883929 0.369997 -0.678514 0.782756 -0.949972 0.534288 -0.0422681 0.356974 0.676778 0.570401 -1.07382 0.158297 0.55604 0.104356 0.454997 -0.292426 -0.851117 -0.386978 -0.0948126 0.39349 -0.0553993 1.34113 1.21571 0.204905 0.902971 0.596914 0.502822 0.426954 0.183221 1.15938 0.946472 0.179305 -0.839665 0.438211 -0.0177923 -0.0855382 0.294495 -0.706601 -1.2362 0.412761 -1.30509 -0.392994 -1.14885 -0.753134 -0.907272 0.355555 0.927277 -0.168083 0.714383 0.84927 1.13973 0.642526 -0.071799 0.447467 -0.413412 1.18522 0.016633 1.10715 0.470359 -0.466693 -0.790783 -0.856968 0.0127873 -0.967792 0.0663911 -0.891499 0.225734 -1.19437 0.231189 -0.958367 0.56818 -0.464192 -0.384949 -0.240549 0.392214 1.12168 0.669611 -0.289069 0.912723 0.138585 0.573 0.160098 0.397162 0.0219095 1.15974 0.0842774 0.142004 0.476195 0.255435 -0.566942 0.60155 0.434108 0.0972721 -0.529743 -0.316862 -1.04147 -0.365559 -0.269051 0.341664 0.410654 0.0518543 1.059 0.750726 0.109208 0.533172 0.589862 0.568709 0.526002 1.61328 1.48644 0.345742 1.14284 0.73629 1.9605 0.86561 -0.898857 0.0257236 0.595325 -0.692618 0.0645452 -0.748085 -0.513811 -0.282726 0.411994 -0.787449 -0.46236 -0.865808 0.388928 0.00476821 0.0476744 -0.463652 1.16708 -0.601778 0.386514 -0.65747 -0.0124784 0.364829 -0.325397 0.691247 -0.859048 0.84428 0.702507 -0.928428 0.296423 0.400348 0.955005 0.958739 -0.926603 0.205985 -0.139647 -1.31213 -1.89193 -0.461981 0.128371 -0.206712 -0.38884 0.448748 -1.0287 0.196776 0.947478 -0.880259 -0.450996 -0.923427 -1.28175 -0.563228 -0.32273 -0.52716 -0.858509 0.702448 0.230764 -1.17507 -0.593929 0.257312 0.210852 0.325663 0.52228 0.368729 -0.688461 -0.594598 0.55743 0.620093 -1.10472 0.735775 0.317985 0.701571 -1.0262 -0.593626 -1.27265 -1.27461 -1.51972 -1.28988 -1.49324 -0.549881 -1.23468 -0.558647 -1.04898 -0.987197 -0.383269 -2.0531 -1.81824 -0.270081 0.100251 -0.109982 0.782576 -0.378919 -0.309349 0.541238 0.448016 -1.54329 -0.0576052 -0.00428476 0.460948 -0.101371 -1.18638 -1.62619 -2.15929 -1.40853 -0.641133 -1.26051 0.0562139 -1.10425 -0.38426 -1.29012 -0.666667 -0.559639 -1.51628 -1.51077 -0.148585 0.747741 0.797296 0.40149 -1.14766 -0.509935 -0.752434 -1.42215 -0.377747 0.265762 0.19929 0.204775 -0.13031 -0.245598 -0.590021 -1.14977 -0.646418 -0.732499 -1.27015 -0.689748 0.168617 -0.120751 -1.1874 -0.0160411 -0.205314 -0.00481893 0.133436 -0.682679 -0.469234 -0.215221 -0.513108 0.908931 -1.0229 0.0795939 -1.20715 -0.334425 -0.371101 0.0413864 -0.207131 0.182959 0.969764 1.43113 0.500031 -1.3856 -0.613928 -0.303197 -0.357295 0.235824 0.261129 -0.963456 -0.292668 0.00655745 -0.0183337 0.199663 0.0871781 0.387225 0.812011 0.845154 0.552353 -0.0610697 -0.570428 -0.779384 -1.10409 -0.924952 0.772624 0.24477 0.441647 -0.319048 1.79023 1.73334 0.0369361 0.476074 0.374227 0.612252 0.828915 0.689333 -0.362866 0.376659 -0.538322 -0.0744702 -0.145565 -0.452323 0.669134 1.35349 -0.570507 -0.40452 -0.187414 0.540819 0.56956 -0.124347 -0.523641 -0.868929 -1.01378 0.392082 0.803507 0.0649706 0.194535 1.25347 0.598347 0.373707 0.448428 -0.138773 -0.00336279 -0.366862 0.1823 -0.699103 -0.136698 -0.978878 -0.428636 0.54458 1.15605 1.07012 -0.816323 1.02093 0.249428 0.855098 -0.385489 -1.09887 -0.891389 0.477973 -1.02365 -0.480164 -0.308219 -0.0635393 1.19928 0.797185 -0.769601 -0.408316 -0.606633 -0.0640854 0.173901 0.172974 0.011673 -0.619609 0.259055 0.177032 -0.490453 -0.223799 -0.186495 1.21658 -0.0710714 -0.181364 -0.341166 0.90642 -0.762726 -1.20677 0.0186472 -1.04417 -0.663877 -0.604879 0.628615 -0.626009 -0.634438 1.45321 1.32374 -0.331124 -0.287986 0.229733 -0.425651 0.975037 -0.679641 -0.452137 0.465449 0.548303 0.76697 -0.411045 0.57794 -0.179641 0.32314 -0.381188 -0.33311 -0.692445 0.195044 -0.827666 0.149379 -1.63549 -0.482731 -0.197376 0.194727 0.0865843 0.808909 0.863258 0.309939 0.66144 0.648604 -0.0798732 0.132233 0.494047 0.034969 0.668796 -0.0175992 -0.347968 0.759478 -0.221496 -0.300382 0.768207 0.178994 0.345986 0.545824 0.568975 0.0366055 -0.615204 -1.39389 -1.02321 0.646713 0.0926217 -0.51795 0.152528 -0.0665104 0.888827 1.26752 -0.243354 1.29938 0.62787 -0.459298 -1.02975 0.861782 -0.180351 -1.10696 0.707253 0.670876 0.124791 0.434852 0.0607344 -0.752583 -0.384952 -0.731925 0.661243 -0.913701 0.369319 -0.785404 -0.648364 -0.715688 -0.657961 -1.16737 0.241415 -1.27366 -0.0819102 -0.690045 -0.431429 -0.551964 -0.970107 -0.723386 -0.847614 -1.36768 -1.58429 -0.124294 -1.14609 -0.301434 -1.0117 -0.601066 -0.178915 0.155825 -0.0259225 -0.76281 -0.406894 -0.41172 -0.86071 0.7597 -0.754583 0.309026 0.460715 -0.0661828 -0.380717 -0.676293 -0.429811 0.274374 0.0472466 -0.869055 0.262528 0.260964 -0.0618612 -1.38154 0.131806 -1.31934 -1.05199 -0.814421 -0.623283 0.727417 -0.537389 -0.910338 -0.61537 -0.869259 0.642553 0.890755 -0.243391 -0.456166 0.357698 0.269627 0.0128947 -0.94577 -0.444757 -0.421778 0.962276 0.455167 0.31514 -0.628194 0.161678 0.844525 -0.225507 0.440869 0.867031 0.553157 0.538223 -0.958828 0.829068 -0.679054 0.633904 0.439242 0.709339 -0.705191 0.910276 0.297952 -0.618397 -0.4542 0.343697 0.48705 0.266743 -0.139017 0.519816 0.400377 -0.389781 -0.827815 0.688816 -0.727318 -0.104679 0.573686 0.887335 -0.0603961 0.690847 0.0558184 0.0762658 -0.24651 0.250138 0.939146 -0.956725 -0.900754 0.180395 -0.873287 
